429 58
president -0.017609 -0.081595 -0.191849 0.088286 -0.191924 -0.049416 -0.068308 -0.029467 -0.090186 -0.040032 -0.095104 -0.15272 -0.071312 -0.142009 -0.140457 -0.011866 0.101456 -0.064349 -0.03342 0.085359 -0.298775 -0.439186 0.352672 -0.187744 0.342543 -0.156928 0.092547 0.094248 0.448696 -0.262654 0.2458 0.301192 -0.060314 0.001985 0.008135 0.072183 0.033409 0.106405 0.032675 -0.076078 -0.197669 -0.124157 0.299853 0.225177 -0.2812 -0.083209 0.069335 -0.018611 -0.238886 0.25544 0.389431 0.006036 0.243931 0.031454 -0.149672 0.206024 -0.036623 0.276841
monk 0.090123 0.037517 -0.114135 -0.035224 -0.197943 -0.162662 0.076478 -0.08904 -0.127702 -0.122128 -0.102414 0.073869 -0.171344 -0.1058 -0.135658 0.122334 -0.043762 0.097219 0.099418 -0.122196 -0.264144 -0.030963 -0.22283 0.105325 -0.001116 0.073678 -0.193609 -2.19E-4 -0.012111 -0.035885 0.02389 0.268662 0.191949 -0.185008 -0.132772 -0.017582 0.228641 -0.016333 0.077207 -0.078363 -0.006878 0.06157 -0.227658 -0.147681 -0.045468 0.092714 -0.118067 8.57E-4 -0.065507 -0.058644 0.1623 -0.174525 0.084629 -0.145864 0.128182 0.100663 0.01331 -0.194358
chance 0.337085 -0.311302 0.226729 0.00453 -0.089883 -0.271064 0.193212 0.097103 -0.12391 -0.192736 0.036569 -0.304837 -0.224476 0.07199 0.050558 0.025149 0.270539 -0.229968 -0.288747 0.108953 0.109663 0.058771 -0.035147 -0.298983 0.232297 0.314429 -0.103581 -0.191624 -0.075383 -0.280024 0.302901 -0.127797 -0.082453 -0.004385 0.192853 -0.174576 -0.048202 -0.060258 0.106699 0.109224 -0.00342 -0.240742 0.070727 0.118894 -0.171885 -0.189115 -0.167795 -0.107697 -0.210417 -0.137563 -0.024887 -0.267509 -0.502388 -0.123191 0.178967 0.038716 0.038007 -0.324769
party -0.107143 0.029749 0.124724 0.170179 -0.534974 -0.091147 -0.132827 -0.161985 -0.082241 -0.118017 -0.273564 -0.188144 -0.033731 -0.2881 0.002264 -0.096286 -0.02343 0.092315 -0.330594 0.348197 -0.16046 -0.017236 0.019468 -0.350932 0.002293 -0.03674 0.03465 0.130893 0.034456 -0.334862 0.07813 -0.085979 0.029926 -0.328818 0.016476 -0.16174 0.035413 0.015732 0.160267 -0.103686 -0.113836 -0.440105 -0.261165 -0.202783 -0.030548 -0.015255 -0.419031 -0.348764 -0.315402 0.04791 0.177463 -0.087656 0.255019 0.076822 -0.182251 -0.157274 0.371449 0.166675
psychology 0.028467 0.038481 -0.21438 0.002431 -0.069931 -0.094307 0.17446 0.048015 0.050421 0.083184 0.177325 -0.112568 -0.185997 0.23939 -0.017765 0.021782 -0.21872 0.230516 0.046214 0.048226 -0.110742 -0.111453 0.135363 -0.032058 0.212788 0.003241 0.13766 -0.022057 0.062677 -0.013271 0.286375 0.049003 0.11792 -0.122439 0.066568 0.121462 0.173844 0.025983 -0.37812 -0.045523 0.079344 -0.153247 0.031886 0.015555 -0.147155 -0.092981 -0.094923 -0.143616 0.225129 -0.288889 0.192876 -0.062262 -0.377874 -0.278388 -0.04957 0.161508 0.032746 -0.005975
government -0.025685 0.006458 -0.193819 -0.047849 -0.336754 -0.22729 -0.134159 0.007479 -0.068955 0.143745 -0.102292 -0.081338 -0.20224 -0.122648 -0.054787 0.040487 -0.16875 -0.27682 -0.199555 0.062203 -0.062028 -0.162772 0.037933 -0.11946 -0.074332 -0.231265 0.09694 0.118517 -0.44791 -0.093753 -0.091825 0.363495 -0.203674 -0.072127 -0.136627 -0.42724 0.134838 0.048907 0.102256 0.078355 0.022252 -0.340056 -0.08968 -0.052918 0.038529 -0.007649 0.069587 -0.025279 -0.133634 0.068199 0.126168 0.036974 0.096593 -0.037728 0.114254 -0.001484 -0.022598 0.311672
video 0.032489 -0.260181 0.256757 -0.087364 0.158663 0.041909 -0.018347 -0.234436 -0.058455 0.309285 -0.280005 -0.132006 -0.161384 -0.066145 -0.033003 0.492557 0.013796 0.510859 -0.042811 -0.307845 -0.170969 -0.144223 -0.118118 0.172037 -0.109065 -0.012335 0.13471 -0.287291 0.038053 -0.172007 0.073635 0.147243 0.431201 0.045456 0.098602 -0.25777 0.088441 -0.276679 -0.245242 -0.073167 -0.396453 0.13006 -0.161185 0.095153 0.123911 0.278218 0.229505 0.008386 0.307263 0.072251 -0.057 -0.079824 0.168961 -0.602035 -0.308477 0.240323 0.134884 0.080167
defeating -0.023204 -0.183527 -0.049972 -0.105378 -0.099994 -0.088738 0.105847 0.209001 0.041583 0.028167 0.137511 -0.162084 -0.062907 -0.099689 0.063058 0.107075 0.143356 0.014445 -0.123541 0.058716 -0.097941 -0.263125 -0.192087 -0.158602 0.04995 0.064598 0.098897 0.158576 0.132195 -0.183288 0.174759 -0.098553 0.065584 0.058345 0.150327 0.089448 -0.108797 0.016114 0.13331 0.018987 0.130466 0.015649 -0.005856 -0.063963 0.078573 -0.189176 0.107425 0.047946 -0.260718 -0.019274 0.171023 0.195278 0.103642 0.031374 0.036255 -0.067276 0.170315 -0.377809
death -0.276922 -0.185395 0.189985 0.023134 -0.397997 0.014625 -0.380112 -0.148584 -0.186457 0.198364 0.04094 -0.255128 0.100181 -0.070402 -0.11343 -0.089134 -0.078076 0.292119 -0.139074 0.064399 -0.097613 0.070358 0.137782 0.147884 -0.411573 0.078303 -0.102438 -0.107538 -0.054455 0.009297 0.01887 0.513131 0.41898 -0.470369 0.244698 0.071653 0.016024 0.290177 -0.098926 -0.332162 0.237593 0.068213 0.225665 0.281793 0.113546 0.090026 -0.176565 -0.023527 -0.046719 0.102318 0.472197 -0.410955 0.072308 0.038307 -0.084397 -0.268758 -0.248376 -0.305343
image 0.10824 0.136272 -0.114689 0.096891 -0.141225 -0.435074 -0.16082 0.184379 -0.147547 0.207336 -0.134793 -0.182115 -0.179145 0.11983 0.010264 0.203185 0.142513 0.157607 0.159774 -0.137574 -0.12516 -0.008913 0.059952 -0.130109 -0.014794 -1.52E-4 0.17701 -0.002706 0.061292 0.019582 -0.006906 0.030635 0.376721 -0.328561 0.316372 0.059538 -0.106446 -0.212481 -0.17317 0.063173 -0.081155 -0.039271 -0.081358 -0.175189 0.039666 0.207119 -0.283817 -0.285009 0.012398 -0.05646 0.015377 0.058732 0.051159 -0.491234 0.333812 0.237923 -0.124962 0.163953
number 0.211706 -0.058453 0.086707 -0.185812 -0.102296 -0.164185 -0.004775 0.067428 -0.333365 0.291339 -0.112358 -0.056019 0.024633 0.025097 -0.085908 -0.003514 -0.007141 -0.070073 -0.122004 0.003873 0.07737 0.022179 -0.405231 -0.064843 0.218603 0.017176 -0.127893 0.027453 -0.126882 -0.136709 0.07867 -0.269223 -0.032527 0.218121 0.136473 -0.473033 1.61E-4 0.042175 -0.179408 0.158883 0.285136 -0.015824 -0.318779 0.249952 0.124229 0.078769 0.044091 -0.038602 0.212524 0.179013 0.13144 -0.304962 0.286983 -0.109801 0.082532 -0.11118 -0.130589 -0.207797
theater -0.031368 0.021157 0.101811 -0.217125 0.025167 -0.151209 0.032913 0.257989 0.182355 -0.113982 -0.119163 0.013918 -0.189382 0.0183 0.01082 0.259113 0.212334 0.380939 -0.003827 0.391712 -0.512121 -0.059346 -0.026869 -0.480181 0.051156 -0.171039 0.086003 0.087678 0.165181 0.112091 0.237793 0.333624 0.348152 0.009191 0.005781 0.096955 -0.10864 -0.081273 -0.255722 0.287216 -0.184282 0.366936 -0.023546 0.107338 0.262395 0.193903 0.085482 0.003253 -0.163814 0.063671 -0.206303 0.017545 0.01398 -0.242382 -0.185025 -0.028133 0.3065 0.057847
astronomer 0.069074 0.034287 -0.081615 -0.040783 -0.037099 0.045391 0.180893 -0.129126 -0.032368 0.008974 0.036426 -0.004428 0.027295 0.059947 4.7E-5 0.012783 -0.022724 0.113468 -0.012654 0.033179 -0.127276 -0.003591 0.016732 -0.061599 0.055236 0.078714 -0.007417 0.054361 0.062647 -0.055803 0.091376 0.06286 0.056642 -0.059629 0.017995 0.035536 0.135481 -0.076694 0.007203 -0.115441 0.076165 0.112712 0.033668 0.030737 0.040215 -0.029681 -0.077219 -0.026037 0.035444 -0.103062 0.197746 -0.074314 -0.135481 -0.122203 -0.03158 0.127748 0.118907 0.036431
project -0.077055 -0.022065 -0.247297 0.073204 0.112157 -0.428965 0.029483 0.113405 0.204023 0.175054 -0.229845 0.160912 -0.013948 0.180675 -0.019429 -0.187291 -0.103349 0.140553 -0.011112 0.315633 -0.162327 0.309866 0.042809 -0.461575 -0.133684 -0.106514 -0.058001 -0.141631 -0.154837 -0.124427 0.086027 0.089077 0.112274 0.125335 -0.034982 -0.243203 0.119192 0.268161 -0.055493 -0.053009 -0.221669 0.213016 -0.006115 0.127263 0.205586 0.102842 -0.024928 -0.297018 -0.034281 0.012628 0.34006 0.267249 -0.336786 -0.177954 0.342804 0.306878 0.201105 0.262463
dawn 2.22E-4 -0.37418 0.146236 0.030841 -0.364278 -0.070744 -0.026642 -0.020024 -0.240587 -0.118609 -0.26737 -0.272473 0.007767 -0.090009 0.017251 -0.187337 0.134882 0.258418 0.166404 -0.090851 -0.118467 0.017618 -0.211123 0.002221 0.021787 0.173854 -0.070637 0.269905 -0.079844 -0.292535 0.035551 0.16069 0.028288 -0.18521 -0.296967 -0.073592 0.149064 -0.153917 0.171691 0.097373 -0.098672 0.254554 0.038778 -0.175468 0.033414 0.024748 -0.292343 0.27645 -0.205937 -0.23824 -0.081685 -0.189158 0.083121 -0.176971 -0.041243 -0.122504 0.041773 0.061338
ear 0.041782 0.441257 0.341142 0.083675 -0.303573 -0.329151 0.091171 -0.16041 -0.020179 -0.081121 0.021764 0.01027 0.079486 0.245218 -0.343176 -0.019279 0.061013 0.409197 0.340149 -0.161283 0.193142 -0.173076 0.085493 0.065064 -0.122159 0.057348 0.014221 -0.183753 -0.065835 0.06579 0.115922 0.038096 0.406573 -0.459982 0.049043 0.09141 0.081172 -0.182685 -0.037865 -0.12161 0.049567 -0.24782 -0.121998 0.093562 -0.19918 0.277723 -0.155326 0.07373 0.171194 -0.174343 -0.082731 -0.157265 -0.10017 -0.230022 0.172247 -0.080546 0.075903 -0.100348
voyage -0.085862 -0.031499 -0.052208 0.038348 0.238492 -0.041309 0.140444 0.080569 -0.139019 -0.016815 -0.267502 0.138633 0.04308 -0.10806 -0.200907 0.01473 0.129784 0.096852 0.063379 0.005445 -0.053285 0.071927 -0.034112 -0.154021 -0.05029 0.326951 -0.157628 0.072034 0.02569 -0.022067 0.026364 0.12567 0.050172 -0.216693 -0.095706 0.01848 -0.03816 -0.103262 0.129032 -0.141038 0.111596 0.28168 0.126196 -0.060159 -0.06621 0.113984 0.088292 0.093411 -0.048549 0.088081 -0.021583 -0.053105 -0.01102 -0.217579 0.179515 0.088434 0.196012 -0.009881
valor -0.024715 -0.050329 0.018086 -0.083492 -0.040884 -0.062822 0.054179 0.080791 -0.022789 0.02942 0.029232 0.006752 -0.019301 -0.026962 0.036043 0.011419 -0.004357 0.008641 -0.056167 -0.011573 -0.052352 -0.058445 -0.001185 0.002411 -0.061149 0.100223 0.057923 0.04669 0.002606 0.002761 -0.003453 0.044297 0.028064 0.037527 0.012019 0.024513 -0.049068 0.0363 -0.038858 -0.01654 0.014402 0.029505 0.040694 0.059919 0.115836 -1.9E-5 -0.018532 0.004679 -0.026813 0.066351 0.033635 -0.002463 0.082507 0.011527 0.006301 0.012714 0.007914 -0.052749
butter 0.065425 0.041974 0.077219 0.128174 0.002412 0.053072 0.31148 0.072331 -0.363958 -0.181781 0.010238 0.27176 -0.12015 0.101915 -0.044639 -0.425385 0.051199 0.551383 0.444263 -0.031287 -0.017589 -0.123608 -0.223961 -0.026074 0.247587 0.048148 0.044827 -0.02109 0.017404 0.270265 0.0538 0.342179 0.061243 -0.371083 -0.118803 0.007865 0.038009 -0.113746 0.114272 -0.067194 0.596273 -0.144236 -0.06601 -0.037233 -0.312972 0.147184 0.095053 0.069923 0.006866 -0.034004 -0.226904 0.004431 -0.456618 0.011469 0.135398 0.086538 0.26187 -0.188199
gin 0.060763 0.002693 0.004627 0.078162 -0.071084 0.067642 0.150666 -0.121568 -0.175714 -0.008015 0.047413 0.117971 -0.031164 0.040121 -0.134914 -0.028963 -0.018283 0.241762 0.219877 0.050163 -0.045333 0.057586 -0.068021 0.048963 -0.042504 -0.001082 0.03161 -0.079667 0.019314 -0.053731 0.003081 0.028606 0.086059 -0.093612 -0.011465 0.043852 0.137408 -0.07842 0.049612 0.051222 0.136046 0.061657 -0.049341 -0.036176 -0.117879 0.06841 -0.047384 -0.082675 -0.09522 0.067301 -0.110501 -0.010547 -0.181238 -0.098023 0.022727 0.011306 0.036975 -0.091252
reservation 0.054448 -0.133126 -0.156509 5.7E-5 0.111259 -0.157925 0.151121 0.144442 -0.001408 0.04928 -0.132747 -0.078952 -0.023146 -0.244005 -0.153364 -0.032761 0.039139 0.233813 -0.021974 0.067355 -0.090364 0.035622 -0.028999 -0.014852 0.067614 0.014219 -0.233964 -0.161418 -0.048931 0.050907 0.045113 0.123247 0.070672 0.103932 0.057243 -0.192553 0.075212 -0.072354 -0.024531 0.062458 -0.177476 0.026903 -0.10663 0.022266 0.014348 0.176134 -0.104062 0.156052 0.048191 0.098043 -0.108604 -0.024958 -0.022069 -0.03566 0.057243 0.055571 -0.032672 0.066914
wealth 0.128371 0.032922 -0.064065 -0.13558 -0.221026 -0.397865 0.030799 0.40554 0.023973 0.196615 0.169424 -0.262693 -0.55177 -0.225798 0.206578 -0.095481 0.055003 0.255529 0.091868 0.34984 0.164518 -0.038414 -0.20386 0.153294 0.168807 -0.221417 0.20315 0.089436 -0.095498 -0.009916 0.003959 0.246428 0.089127 -0.398547 -0.082481 -0.107818 -0.190053 0.409107 -0.157529 -0.030207 0.204906 -0.202459 -0.279361 -0.155226 0.044487 -0.130338 0.006182 -0.234825 -0.185497 0.194301 0.016987 -0.061463 -0.355051 -0.215194 0.195843 0.093669 0.075547 0.261428
eat 0.136202 0.017893 -0.144621 -0.159434 -0.051987 -0.23021 0.418589 -0.177213 -0.347872 -0.55572 -0.157308 0.038605 -0.03775 0.036889 -0.085927 -0.138454 -0.06035 0.494066 0.159791 -0.002279 -0.070988 -0.13276 -0.205776 0.048144 0.201223 -0.383077 -0.217128 0.409611 -0.116866 -0.25429 -0.007569 0.428801 0.196544 -0.389076 -0.187809 0.260848 0.465548 0.119737 -0.131752 0.272553 0.412223 -0.24215 0.019127 -0.17672 -0.545244 0.330461 0.186996 0.194436 0.126105 -0.196418 -0.112341 -0.159394 -0.370006 0.286805 -0.104781 -0.148982 0.295276 -0.561156
soap 0.261456 0.117717 0.113866 2.23E-4 -0.070896 0.080304 0.125458 -0.091531 -0.004644 -0.075118 -0.047283 0.077471 -0.063057 0.019874 0.027159 0.144911 0.088684 0.520084 0.036096 0.005219 -0.004734 0.280408 -0.16167 -0.029906 0.153884 0.039813 -0.017858 0.017573 -0.07621 0.14362 -0.012829 0.094522 0.316372 -0.077415 0.058921 0.304617 -0.03961 -0.101108 -0.02718 -0.131683 0.011952 0.011894 -0.055343 0.167946 -0.132456 0.22463 0.09993 0.11196 -0.251057 0.035141 -0.25002 -0.006064 0.09847 -0.330968 -0.235716 0.107672 0.13089 -0.145857
discovery -0.128302 0.090079 -0.260082 0.007172 0.05698 -0.035396 -0.08782 0.022261 -0.134521 0.207953 -0.369576 0.055511 -0.047469 0.072554 -0.102036 -0.057739 -0.015347 0.161132 0.142771 -0.006589 -0.036812 0.085927 0.080835 -0.143633 0.169567 0.080172 0.01122 0.196604 0.03808 0.201094 0.206726 0.29627 0.393676 -0.27547 0.407962 -0.26327 -0.123729 0.212372 -0.381669 -0.133324 0.04041 0.098519 -0.061669 -0.199898 0.197483 0.08183 0.09229 -0.087517 0.091407 -0.183569 0.562695 0.065197 -0.37927 -0.048535 0.476343 0.326043 -0.019918 -0.097841
Jerusalem 0.073533 0.238119 -0.241693 -0.339164 -0.058487 0.054618 -0.28037 0.308645 -0.151799 0.470221 -0.177721 0.25233 -0.239057 0.403014 0.043619 0.26945 -0.025587 -0.135804 -0.191472 0.45391 -0.046162 0.114232 0.013607 -0.33568 -0.146199 -0.033414 -0.399461 0.281772 0.227172 -0.027058 -0.068126 0.537997 0.313758 -0.228499 -0.221011 -0.334896 0.400214 -0.117198 0.146042 -0.240666 -0.378368 0.449712 0.036334 0.266189 -0.175691 0.001531 -0.767472 0.034853 -0.419069 -0.092718 0.26461 0.263198 -0.103948 0.158178 -0.108194 -0.153112 0.163769 0.158441
hospital -0.318167 -0.109049 0.173252 0.082853 -0.10095 -0.293803 0.167664 -0.235955 -0.226927 -0.149238 -0.261837 -0.016964 -0.033643 0.347956 -0.061851 -0.207995 0.040203 0.020135 -0.074369 0.108246 0.624911 0.03626 0.00375 -0.192281 -0.049153 0.187079 -0.377753 -0.236101 0.047789 -0.133536 0.61059 0.096199 0.523714 -0.280788 0.045222 -0.246114 0.451244 0.42529 -0.101803 0.145786 -0.028925 0.325969 0.359566 0.311368 -0.166524 0.079275 -0.385131 0.29904 0.440884 0.062253 0.123238 -0.605308 0.046296 -0.01681 -0.129906 0.115601 -0.257824 0.164927
computer -0.114289 -0.25762 0.129148 -0.029933 0.379781 -0.179843 0.026994 0.102425 -0.033881 0.080532 -0.122134 -0.192331 -0.181025 -0.192095 -0.423672 0.068004 -0.201352 0.49789 0.385108 -0.392101 0.128734 -0.028375 0.178499 0.119916 -0.185165 -0.187533 0.081691 -0.184946 -0.091457 0.045 0.096173 -0.046151 0.192286 -0.140516 0.082965 -0.053954 0.435768 0.002425 -0.277814 0.132471 -0.294803 -0.247804 -0.381774 -0.033056 0.102771 0.09613 0.29063 -0.022837 0.330307 0.04635 -0.080211 0.124655 -0.066986 -0.394216 -0.16942 0.208477 0.02595 0.122261
queen 0.181754 -0.069743 -0.096917 0.0458 -0.267961 -0.180988 0.164919 -0.189248 -0.228122 -0.159227 -0.089688 0.240402 -0.191943 -0.086672 -0.032713 0.226242 0.086029 0.243084 -0.025176 -0.014723 0.024438 0.211068 -0.05066 -0.199944 0.157739 -0.002805 -0.191133 -0.020927 0.28472 0.112469 0.316627 0.096917 0.418146 -0.356394 0.256904 0.143409 -0.10133 0.025652 0.082934 -0.064855 0.14342 0.09987 0.081363 0.036555 -0.046393 0.036816 -0.284486 -0.229635 -0.296564 -0.06631 0.06266 0.009875 -0.013582 -0.141285 0.070324 -0.15626 0.339712 -0.136123
wizard 0.082356 -0.078883 0.09539 -0.015408 -0.058129 -0.031957 -0.033385 0.015032 -0.043387 -0.153931 0.076611 0.071785 -0.074056 -0.070781 -0.053359 0.135486 -0.027879 0.1086 0.078886 -0.029379 -0.021617 0.035498 -0.084628 0.014645 -0.078098 -0.059494 0.108428 -0.150598 -0.007669 0.061545 0.045303 0.053454 0.126754 -0.092865 0.040432 0.146339 0.047618 -0.016602 -0.011242 0.022942 -0.003041 -0.012741 0.038617 0.058926 0.097704 0.082564 -0.041544 0.038115 -0.076034 0.019315 0.026957 -0.018082 -0.049567 -0.002375 -0.011832 0.014195 -0.025656 -0.084472
oil -0.458853 -0.266157 -0.339914 0.178267 -0.107785 0.066135 0.115823 0.161194 -0.120636 0.133779 0.004392 0.017861 -0.349007 -0.188949 0.242126 -0.149695 -0.04793 0.184091 0.133312 0.363197 0.1354 0.100959 0.009521 -0.09365 0.529821 0.069975 0.39633 0.461188 -0.243477 -0.105414 -0.297002 0.295886 -0.093773 -1.9E-5 -0.07956 -0.405745 -0.34804 0.152812 0.430053 -0.022805 0.426356 -0.038499 -0.152951 -0.041551 -0.295783 0.017031 0.245962 0.075513 -0.269309 0.548335 0.028921 0.042083 -0.19975 -0.185389 -0.133221 -0.044747 0.027102 -0.03464
currency -0.035408 0.009618 -0.226748 0.216456 0.057679 -0.042452 0.159423 0.076713 -0.330903 0.121393 -0.066384 -0.116874 -0.578109 -0.283642 -0.538526 0.145714 0.147147 0.04426 0.021189 0.131321 -0.019823 -0.474709 -0.540458 0.133638 0.090572 -0.304527 0.243475 0.298499 -0.759244 -0.127933 -0.225996 0.393091 -0.196285 -0.265793 0.020369 -0.233877 -0.013643 0.167008 0.023465 -0.22112 0.521517 -0.286206 0.0504 -0.391099 -0.117928 -0.489428 0.020613 0.198101 -0.130544 0.047166 -0.295765 0.317306 0.013857 -0.167235 0.048056 -0.241282 -0.041254 0.276947
laundering -0.397542 -0.002324 -0.242732 -0.271878 -0.151528 -0.117798 -0.135466 0.3338 0.034769 0.279925 -0.137847 -0.063629 -0.526883 0.063719 -0.366222 -0.101658 -2.43E-4 0.073954 -0.318674 -0.12922 0.221713 -0.113584 -0.194991 0.046022 -0.117655 -0.236028 0.146025 0.014807 0.019225 0.014054 -0.346905 0.154968 0.0055 -0.264367 -0.332759 -0.136254 0.083626 0.298406 0.037807 0.063212 -0.124334 -0.273801 0.053337 -0.047607 0.059921 0.163533 0.157588 0.164878 0.231264 0.177589 0.207724 0.45375 -0.393248 0.280644 0.040584 -0.039635 -0.006081 -0.064845
midday -0.369368 -0.256442 0.091211 0.274756 -0.048975 0.056707 0.222127 0.090339 -0.073593 -0.048444 -0.159345 -0.068555 0.040145 0.062944 -0.121579 -0.064912 0.071951 0.190299 -0.023176 0.203306 0.015723 0.105151 -0.247186 0.120425 0.198903 -0.031906 -0.217176 0.183982 0.047358 -0.280298 0.225794 0.148775 -0.025329 0.074923 -0.204242 -0.460925 0.200188 -0.10534 0.254044 0.14063 -0.048307 0.383882 -0.205228 -0.176931 0.26183 0.184907 -0.094477 0.391545 -0.206563 -0.096823 -0.255798 0.006351 -0.047182 -0.189669 0.135011 -0.097564 -0.096034 0.004593
Arafat -0.011526 -0.103961 0.049189 -0.012501 -0.161792 -0.024744 -0.027584 -0.055903 -0.119484 0.023441 0.113766 0.208902 -0.208244 0.081458 -0.006603 0.190196 -0.073237 0.1804 -3.8E-5 0.018215 -0.032254 -0.088848 0.035407 -0.042482 -0.128697 0.12744 0.1007 -0.018762 0.081286 -0.137305 0.05566 0.156673 0.285069 -0.250463 -0.155363 -0.134498 0.006296 0.08655 0.168831 -0.043277 0.008635 0.096491 0.025492 0.011167 0.088891 -0.118378 -0.240481 -0.085721 -0.119975 -0.010471 0.405706 0.097816 0.150457 -0.068781 -0.021054 -0.036721 0.011257 0.15906
man -0.023891 -0.196143 -0.140114 0.056464 -0.386885 -0.21423 -0.051203 0.053644 -0.33102 -0.077389 -0.23006 -0.130842 -0.114685 -0.224777 -0.319806 0.213466 -0.009223 0.138174 0.035767 -0.297442 0.07693 0.114911 -0.195486 0.162549 0.211817 -0.091825 0.09922 -0.295925 0.090918 -0.106117 -0.027841 0.208299 0.204064 -0.2755 0.108418 -0.032223 -0.038556 0.062933 -0.098694 -0.003679 0.083579 -0.105933 0.023983 0.088115 0.028548 0.135975 -0.862348 -0.069281 -0.00683 0.179226 0.202369 -0.365762 -0.150169 -0.098385 0.125631 0.129924 0.237984 0.186947
keyboard 0.055955 0.002287 0.165798 0.213222 0.234706 -0.135368 0.185479 0.057781 -0.334684 0.13637 0.096874 -0.21515 -0.123882 -0.084618 -0.279129 0.034944 9.06E-4 0.594201 0.319727 -0.1687 -0.463532 0.079038 -0.029306 -0.168044 -0.025603 -0.128332 0.210669 -0.203951 -0.161612 0.029422 0.026847 0.024661 0.076456 -0.262584 -0.165592 -0.136203 0.021811 -0.302371 0.009062 0.031226 0.022172 -0.174422 -0.242106 0.027084 -0.127584 0.37399 -0.068627 -0.047866 0.16122 0.097197 -0.315365 0.115797 -0.088672 -0.209735 -0.087971 0.151714 0.120135 0.018548
announcement -0.385347 -0.234241 -0.045685 0.214303 0.07648 -0.068636 -0.182483 -0.343479 -0.248783 0.116327 -0.18126 0.077427 0.046692 0.14209 -0.240334 0.088743 0.388646 -0.209062 -0.140783 0.397531 0.006715 0.11903 -0.095423 -0.278728 0.196666 -0.15762 0.15268 0.058156 0.042752 -0.197877 0.423401 0.33283 0.058196 -0.035584 0.239276 -0.28899 0.124951 -0.42204 0.069467 0.035384 0.077075 0.015785 0.181005 0.182807 0.184941 -0.330525 0.281159 0.103792 0.001182 0.042851 -0.191682 0.085985 0.060042 -0.017354 0.094819 -0.062024 -0.126352 0.13024
racket -0.044896 -0.037635 0.082774 0.083547 -0.222176 -0.049333 0.082075 -0.006394 -0.120536 -0.067874 -0.094536 0.062956 0.007482 -0.008928 -0.117601 0.067595 0.100162 0.138473 0.219237 -0.216059 0.101775 -0.103346 -0.074018 0.057763 -0.047472 0.210924 -0.015772 -0.054363 -0.105783 -0.01863 0.044497 0.062396 0.183016 -0.135846 -0.005905 -0.101792 -0.106263 -0.02691 0.122192 -0.01815 -0.019349 -0.016698 0.008065 -0.105012 0.011881 0.027642 -0.1396 0.117544 -0.054031 0.00964 0.022585 0.010842 0.056998 -0.144192 0.165503 -0.112741 0.044882 -0.128598
Maradona 0.161717 0.009646 0.102954 0.077781 -0.109424 -0.159776 0.16575 -0.097246 0.022978 -0.127591 0.015509 0.205383 -0.058923 -0.026206 -0.055456 0.150247 0.112408 0.103226 0.024782 -0.090671 -0.073852 0.032552 -0.027721 -0.054823 0.020276 0.24658 0.140424 -0.102918 0.038813 -0.107269 0.235729 0.255658 -0.058641 -0.015213 -0.1513 0.051624 0.001531 0.058007 0.048812 -0.182653 -0.185051 0.008845 0.13358 -0.04863 -0.024604 -0.081318 -0.225535 0.012607 -0.141905 0.067521 0.103139 0.015508 -3.07E-4 -0.073035 -0.075626 -0.077822 0.205413 -0.141946
anxiety 0.099337 0.047794 0.095728 -0.032501 -0.22931 -0.056736 -0.057597 -0.061004 -0.188198 0.301414 -0.043544 -0.147693 0.144392 0.296108 0.062104 -0.033552 -0.004956 0.132867 0.067336 0.091798 0.190759 -0.023381 -0.121881 0.223251 0.192141 -0.102463 0.353957 0.084951 -0.114597 0.215945 0.48712 0.283806 0.254601 -0.448622 0.027169 -0.086011 -0.027356 0.141118 -0.172015 0.096327 0.143126 -0.315863 0.265254 0.121226 -0.036864 0.009604 -0.060561 -0.003395 0.105268 -0.262064 0.055866 -0.19866 0.012443 -0.529078 -0.082884 0.018781 -0.127077 -0.129718
jazz -0.003053 0.07849 0.036318 -0.126129 0.152552 -0.156207 0.298803 0.066935 0.186582 0.232252 -0.091027 0.108955 -0.044599 -0.110887 0.066423 0.168579 0.250377 0.5893 0.110169 0.328115 -0.414417 0.079469 -0.178383 -0.242288 0.154084 0.041588 0.081209 -0.213992 -0.044221 -0.095408 0.111904 0.043744 0.52125 -0.263846 -0.119514 0.380842 0.041115 -0.150731 -0.04928 -0.012712 0.297174 0.352514 -0.058744 -0.088616 -0.137591 -0.075851 -0.009878 -0.183932 -0.173183 0.152342 0.002678 -0.066725 -0.089109 -0.189878 0.072088 0.126383 0.1098 -0.17317
gain -0.229997 0.182073 0.008492 -0.086247 -0.14191 -0.148555 0.070422 0.354001 -0.13271 0.13239 -0.192388 -0.263052 0.064334 -0.037104 -0.09632 0.232602 0.043542 0.211321 -0.032652 -0.141013 0.309338 -0.281716 0.020569 -0.143316 -0.035413 -0.343717 0.155944 0.104668 -0.04285 -0.038831 -0.049623 0.143648 -0.036489 0.04623 0.009595 -0.079348 -0.051165 0.18592 0.066739 -0.09346 -0.269945 -0.178577 -0.011901 -0.160407 0.109902 -0.393969 0.175822 -0.334701 0.223435 -0.116859 -0.006532 0.125099 0.019456 0.047502 -0.075875 0.060582 0.139628 -0.39962
history 0.239597 0.028732 -0.19931 -0.238158 0.039264 -0.312782 -0.069525 0.457806 0.356675 0.230996 0.13147 -0.181399 -0.252269 -0.168219 -0.07038 0.007285 0.244151 0.146784 0.015136 -0.054747 -0.216578 0.160852 0.001004 -0.067754 0.02047 0.022044 -0.121446 0.048174 -0.056145 0.033114 0.208495 0.259375 0.189155 -0.238198 0.367228 0.111309 -0.185379 0.011455 0.068291 -0.262747 0.104391 0.070088 -0.317457 0.23462 0.172562 -0.215692 -0.112416 0.033995 -0.195914 -0.042902 0.235968 -0.186142 0.105999 -0.231204 0.052025 0.03733 0.213288 -0.167498
bird 0.029025 -0.146334 0.007332 -0.171514 -0.122849 -0.00426 0.222274 0.047129 -0.127804 -0.222759 -0.253125 -0.028699 0.006925 -0.008517 -0.090812 -0.146629 -0.158698 0.196719 0.031294 -0.15599 0.001973 0.138915 -0.250785 0.333374 0.242323 0.162226 -0.44143 -0.033391 -0.268839 0.142362 0.01 0.266314 0.520453 -0.196576 0.135016 -0.175003 0.077396 -0.218608 -0.012283 -0.213518 0.256518 0.055964 -0.035465 -0.199579 -0.029265 0.214237 0.028079 0.243901 -0.122187 -0.182567 0.421815 0.268191 -0.233952 -0.245835 0.257968 0.182991 0.147427 -0.10103
possession -0.051137 0.16729 -0.130244 -0.352724 0.219108 -0.078839 0.34623 0.169472 -0.275134 0.203356 -0.023869 -0.271017 -0.198278 0.045269 -0.302741 0.043482 -0.131855 0.180035 0.168087 -0.612115 0.279096 -0.076117 -0.078344 0.043822 -0.086111 0.218726 0.312582 -0.355153 0.404601 -0.226158 -0.013758 0.031011 0.127749 -0.103567 -0.114955 -0.535835 -0.222341 0.062951 0.004478 -0.122302 -0.096387 -0.138183 -0.064617 0.333086 -0.054041 -0.146351 -0.139776 -0.013787 0.122658 0.081218 -0.088572 0.46493 -0.492491 0.171261 0.204717 -0.145985 -0.032121 -0.010893
yen -0.487919 0.057772 -0.050657 0.102326 -0.082375 -0.318391 0.486326 0.033724 -0.725049 -0.08058 -0.613713 -0.016029 -0.141117 -0.038972 -0.293937 -0.172796 0.226472 0.200022 0.036978 0.17126 -0.186924 -0.278171 -0.295239 -0.047758 -0.088787 -0.340751 0.324002 -0.0059 -0.384277 -0.227952 0.14237 0.621503 -0.069809 -0.105235 -0.359678 -0.524748 -0.017787 -0.169491 0.13642 -0.162006 0.613967 -0.317821 0.011131 -0.265218 0.447362 -0.404895 0.35173 0.087591 -0.115086 -0.083237 -0.514207 -0.022263 -0.146879 -0.282112 0.465517 -0.159704 -0.268343 -0.051885
chemistry 0.074301 0.02748 0.046053 -0.031423 -0.045332 -0.027654 0.133787 -0.003962 -0.024801 0.028784 0.090519 -0.124494 0.01216 0.004235 0.059283 -0.146077 -0.139207 0.329893 0.095826 -0.09398 0.017051 -0.041269 -0.043038 -0.210063 0.030159 0.017385 0.157989 -0.109146 0.022439 0.038489 0.193582 0.045936 0.041437 -0.132948 0.04834 0.204388 -0.060366 0.111189 -0.109785 -0.107787 0.104119 -0.012809 -0.157976 -0.079376 0.043903 -0.08754 0.08591 -0.095769 0.011244 -0.197755 0.08271 -0.016954 -0.345246 -0.211322 -0.037071 0.113424 0.212064 -0.161923
library 0.117458 -0.108388 -0.09068 -0.233868 -0.200487 -0.189931 0.116876 0.08608 -0.061517 0.276022 -0.094989 -0.129388 0.049817 -0.21354 -0.241972 -0.021503 0.116206 0.388108 0.003233 0.186384 -0.156137 0.274135 -0.277711 -0.197614 -0.287136 5.73E-4 -0.418442 -0.1289 -0.04648 0.014342 0.062211 0.319141 0.243938 -0.064006 0.004086 0.087919 0.372926 0.042996 -0.215049 0.212018 -0.314637 0.168362 -0.248538 0.235961 -0.001239 0.015911 0.125582 -0.233153 0.178871 -0.054578 -0.122793 0.133403 -0.17956 -0.16923 -0.026342 0.102758 0.098156 0.379073
virtuoso -0.062926 -0.001649 0.068105 -0.017425 -0.025803 -0.172699 0.04583 0.038859 -0.09539 0.025534 -0.041227 0.005721 -0.122492 0.025883 -0.03623 0.047072 -0.012321 0.135866 -0.081711 -0.025328 -0.023235 -0.088123 -0.070401 -0.110345 -0.001172 0.014623 0.0309 -0.02365 -0.010639 0.004223 0.14543 0.103695 0.108215 -0.060438 -0.051916 0.018626 -0.011607 0.03749 0.002531 -0.036715 0.037603 -0.034273 0.014077 0.054213 0.097869 0.051294 0.013212 0.021234 -0.040184 0.050627 0.13744 0.02773 -0.01695 -0.032503 0.046071 0.026666 -0.005659 -0.065598
psychiatry 0.04443 0.059724 -0.024982 -0.069094 -0.196769 -0.117099 0.099133 0.076476 -0.044474 0.146531 0.008338 -0.143993 -0.17719 0.175294 -0.08864 -0.062997 -0.132937 0.15683 -0.105426 0.021899 0.007427 -0.041149 0.006193 -0.043315 0.088056 -0.183794 0.021109 -0.001349 -0.018802 -0.122807 0.180675 0.123973 0.126927 -0.078563 -0.061182 0.048036 0.066126 0.189418 -0.086639 0.084086 0.02449 -0.050485 -0.041029 0.045384 -0.035431 -0.006525 -0.004812 0.131995 0.065615 0.036848 0.174951 0.016861 -0.209847 -0.172358 -0.007459 0.006256 0.016484 -0.158998
change 0.123359 -0.148533 0.098913 -0.399003 -0.360785 -0.097526 -0.376939 0.037217 0.156839 0.03652 0.168538 0.064801 0.331517 0.119503 0.034567 0.09733 -0.129285 0.179652 -0.089437 0.232012 0.152632 -0.228098 0.068744 -0.052611 0.2309 -0.12757 0.038627 0.098044 0.003871 -0.543498 0.162784 0.342666 -0.008382 0.03462 0.460356 -0.102819 0.293133 0.219284 0.121149 -0.093485 -0.076262 -0.283412 0.096935 -0.251133 -0.186508 0.064505 0.202644 0.05202 0.176322 0.012485 0.074429 0.012049 0.102938 -0.346028 -0.165294 0.285304 0.091836 -0.269284
entity -0.078937 -0.034056 -0.442462 -0.167967 0.075873 -0.119101 -0.087033 0.303602 0.093312 -0.084354 0.181008 -0.128314 -0.095236 0.218925 -0.078775 0.118586 0.051338 -0.00904 -0.106517 0.067373 -0.209387 0.023065 0.161889 -0.302209 -0.019147 -0.108814 -0.088936 -0.101818 -0.055688 -0.160257 0.029663 0.016873 0.107284 -0.277779 -0.2008 -0.330488 0.005413 -0.002395 -0.078675 -0.181076 0.150753 -0.394057 -0.276878 -0.070938 0.089813 -0.060633 -0.049432 0.141606 0.248033 0.143603 0.035355 0.2406 -0.045435 0.098165 0.211347 -0.081734 0.171957 0.247221
tool -0.077285 -0.105369 0.061961 -0.039737 0.007239 -0.22778 0.114857 -0.13601 0.172911 0.172671 0.014121 -0.289575 -0.032194 0.113054 -0.187521 0.111318 -0.181773 0.064375 0.180599 -0.16686 -0.050611 -0.013217 0.195823 -0.067283 0.159288 -0.189671 0.210094 -0.144217 -0.25222 -0.169279 -0.060974 0.072809 0.269784 -0.20108 0.280243 -0.201392 0.061504 0.019018 -0.129348 0.112566 -0.155476 -0.137911 -0.243013 0.050593 -0.16516 0.047542 0.023834 -0.304343 0.484542 0.069607 0.233717 -0.064889 -0.080278 -0.385606 0.179626 0.356855 0.426624 0.081659
stupid 0.00466 -0.101662 -0.032474 0.120718 -0.409236 0.036078 0.097417 0.23228 0.090649 -0.120956 0.045976 -0.317529 -0.203918 0.166663 -0.130586 0.007395 -0.110486 -0.163397 -0.012004 -0.070068 -0.196114 -0.032224 -0.106085 0.109879 0.051325 -0.457456 0.283223 -0.090706 0.059545 -0.25778 -0.016798 0.109505 0.307006 0.04823 0.065343 0.194513 0.069043 -0.326713 0.172597 -0.133223 0.320814 -0.368172 -0.074707 -0.225096 -0.312722 0.34306 -0.103937 0.144672 0.334624 -0.216754 0.280753 -0.157963 -0.295893 -0.267498 -0.308911 -0.252712 0.063954 -0.210513
precedent 0.051749 -0.098848 -0.294659 -0.026086 -0.296538 -0.038988 -0.260902 -0.04468 -0.048028 0.001277 0.393174 -0.037317 0.122015 0.012973 -0.015444 0.133393 -0.233281 -0.310617 0.122025 -0.179633 -0.170718 -0.027805 -0.094487 -0.155273 -0.027229 0.039255 -0.020777 -0.057661 -0.180135 -0.221657 0.218736 0.316212 0.01699 -0.237709 0.128636 -0.258184 -0.275549 0.071514 -0.020078 -0.162121 0.12531 -0.088535 -0.182271 -0.169545 -0.014685 0.006099 -0.04756 0.081939 0.102824 0.104675 0.01364 0.177051 0.019038 -0.2014 0.003631 -0.036557 0.179167 -0.125842
architecture 0.275223 -0.04339 -0.259126 -0.040105 0.085248 -0.246516 0.242522 0.180084 0.078777 0.119043 0.173871 -0.002765 -0.054285 0.026159 -0.276595 0.041795 -0.188561 0.276645 -0.023715 0.431708 -0.215528 -0.163494 -0.171331 -0.438762 0.123258 0.261109 0.077429 0.082339 -0.0048 -0.177206 0.168594 0.118981 0.158391 -0.037986 0.016713 0.065547 0.390811 -0.01577 -0.162805 0.120402 -0.041685 0.167654 -0.345814 -0.250004 0.022532 -0.090178 -0.150641 -0.309048 0.036717 0.292813 0.022878 0.288735 -0.103977 -0.243574 0.233368 0.191436 0.301603 0.200361
consumer 0.092569 0.238599 0.182673 0.306024 -0.034388 -0.273926 0.150002 -0.011586 -0.055322 0.007948 -0.109884 -0.040471 0.131414 0.186117 -0.247895 -0.206001 -0.319852 0.203995 -0.278472 -0.296762 -0.10984 -0.459218 0.17659 0.273435 0.273355 -0.522616 0.08903 -0.045954 -0.051406 -0.160811 0.210258 0.522676 -0.151686 0.115517 0.20857 0.174257 -0.016501 0.02884 -0.005807 -0.030274 0.295969 -0.113693 -0.332993 -0.284669 0.400926 0.127345 0.257457 -0.203022 0.377163 0.179518 -0.178654 0.295978 0.021177 -0.224748 -0.06277 0.052297 -3.31E-4 0.252995
doctor -0.100143 0.013078 0.201175 0.36397 -0.077018 -0.383451 -0.023297 -0.38934 -0.183771 -0.147023 -0.183132 -0.350308 -0.092284 0.059983 -0.261153 -0.14563 -0.011562 0.005784 0.139381 -0.182324 -0.002312 -0.015287 -0.030437 0.08876 0.159279 -0.19048 -0.046233 -0.158296 0.06172 -0.095337 0.283736 0.07958 0.117527 -0.603843 0.068456 -0.18891 0.375951 0.557642 -0.239942 0.078791 0.009719 -0.129072 0.001307 0.493132 -0.354285 0.070802 -0.10246 0.32716 0.262311 -0.041271 0.385543 -0.382783 -0.113606 0.053288 -0.47394 0.119487 0.140269 0.051855
cock -0.018428 -0.060863 0.045457 0.052822 -0.079943 -0.068282 0.084899 0.075237 -0.09375 0.11196 -0.046383 -0.008354 -0.037487 0.02177 -0.115287 -0.029375 -0.01979 0.14068 -0.030495 0.004835 -0.018758 -0.017752 -0.023625 0.00372 0.034998 -0.041168 -0.045968 -0.06829 0.001041 -0.029266 0.065827 0.163513 0.052872 -0.049465 -0.020459 -0.031741 0.044439 -0.013299 0.014372 0.021828 -0.009533 -0.030679 -0.004571 -0.001892 -0.011847 0.026552 -0.007476 0.073421 -0.015296 0.013701 0.024366 0.010564 -0.020649 -0.061239 -0.015568 0.017341 0.007489 -0.053603
planet 0.070672 -0.25018 -0.090604 -0.061605 -0.114804 0.051771 -0.274154 0.330744 0.046969 -0.106092 -0.037124 -0.329889 0.023314 0.074535 -0.051199 -0.19478 0.20236 0.320367 0.20875 -0.068033 -0.132691 -0.115279 0.043659 0.103287 0.014219 0.085573 -0.031626 0.200197 -0.378149 -0.049063 0.131026 0.249896 0.389388 -0.179051 0.251466 -0.196596 0.051963 -0.145753 0.126964 -0.240383 0.286965 -0.13465 -0.169054 0.094292 -0.23546 0.244757 0.033107 -0.012655 -0.192359 -0.229507 0.112884 -0.094215 -0.275862 -0.323977 0.301736 0.552184 0.366339 -0.179141
software -0.081507 -0.16691 0.137021 0.233228 0.470266 -0.367021 0.16022 0.133042 -0.130421 0.071121 -0.092971 -0.422113 -0.194099 0.214045 -0.30383 0.257013 -0.057788 0.308037 0.169478 -0.170623 -0.176646 0.009997 0.077122 -0.244237 -0.127462 -0.117091 0.246647 -0.365234 -0.208556 -0.324441 0.168896 0.081908 0.194066 -0.21729 -0.093957 -0.384983 0.226453 -0.164237 -0.136428 0.011005 -0.05955 -0.217555 -0.601601 -0.301744 0.143549 0.027664 0.326001 -0.055656 0.352752 0.279172 -0.044287 0.126476 -0.101622 -0.195617 -0.068572 0.371045 0.123759 0.317718
personnel -0.079662 -0.027744 -0.166866 -0.027203 0.107061 -0.200464 0.37662 -0.150604 -0.147595 0.478327 0.197488 -0.2809 -0.077729 -0.244953 0.085961 0.098797 -0.119669 -0.310443 0.191651 0.010582 0.037511 -0.29125 0.060336 -0.203175 -6.44E-4 0.0868 -0.153659 0.012461 -0.324709 0.026599 0.292103 0.29905 0.160487 0.209534 -0.28125 -0.156775 -0.180462 0.248938 -0.035174 0.183692 0.00319 -0.132601 0.205536 0.204483 0.236642 0.35124 0.087178 0.31822 0.275352 0.015861 0.091112 -0.086255 0.324663 0.238301 -0.08089 -0.009063 0.177043 0.091569
bank -0.078721 0.019754 0.101607 0.082164 -0.157526 0.051885 -0.285003 0.316503 -0.322549 -0.029762 -0.101706 -0.148057 -0.462319 -0.522231 -0.388483 -0.034498 0.074414 -0.004293 -0.161478 0.172794 0.205858 -0.060862 -0.168063 -0.066263 -0.109578 -0.190572 -0.121194 0.019648 -0.116624 -0.042206 0.015845 0.149171 -0.246683 -0.272071 -0.121173 -0.44569 0.100546 0.280288 -0.308047 -0.059465 0.074073 -0.358755 0.131463 0.195815 0.416723 -0.233834 -0.370937 0.414834 0.176663 0.037962 -0.23383 0.204822 -0.18729 -0.13475 0.170015 -0.053306 -0.131146 0.281711
Wednesday -0.286172 -0.143501 0.205973 -0.23934 -0.029285 0.07915 -0.093684 -0.307131 0.213528 0.473133 -0.332052 0.354745 -0.176759 0.033383 -0.296547 0.211988 0.026186 0.237075 -0.185183 -0.079649 0.135862 0.03836 0.308015 0.013457 0.113854 -0.034978 -0.387723 -0.214289 0.251747 -0.041481 -0.235009 0.193929 -0.275858 -0.068759 -0.158242 -0.532252 -0.151745 -0.201611 0.34036 0.169405 -0.049674 -0.009787 0.246312 -0.079348 0.066857 -0.153264 0.001493 0.181379 -0.052624 -0.114803 0.044662 -0.320414 0.213677 -0.573413 0.303268 -0.148186 -0.007886 -0.201251
victory -0.109613 0.19332 0.052148 0.081565 -0.109199 -0.364505 0.070938 0.052547 -0.135886 -0.012258 -0.406532 -0.185432 0.001104 -0.338452 0.080172 -0.02682 0.382933 -0.216655 -0.012478 -0.058145 -0.027909 -0.306596 -0.224035 -0.392681 0.021979 0.209129 0.118014 0.064365 0.043081 -0.575354 0.238931 0.181596 0.086139 -0.272497 0.615927 -0.219243 -0.126309 -0.14772 0.316548 -0.174381 -0.248772 0.066146 0.175852 0.031754 -0.093101 -0.345201 -0.105329 0.169931 -0.264313 0.095415 0.149226 0.062921 -0.236129 -0.00569 0.214848 -0.234859 0.056828 -0.578649
bishop -0.147639 0.072307 -0.007008 -0.133624 -0.465804 -0.171308 -0.107001 -0.125355 0.012103 -0.088119 -0.062039 -0.208882 -0.094342 -0.238993 -0.220753 0.030499 -0.054899 -0.155467 -0.450207 -0.151621 -0.284351 -0.130001 -0.228666 -0.007561 -0.181753 -0.044449 -0.031609 0.054203 -0.074174 -0.249403 0.334815 0.117481 0.09264 -0.387487 0.009772 0.024719 -0.036712 0.099814 0.022203 -0.128411 0.176466 0.105119 0.063192 0.206277 -0.011096 -0.125237 -0.485362 0.03576 -0.208236 0.309853 0.42284 -0.06971 0.08588 0.018949 0.074504 0.099036 0.191616 -0.180946
country -0.190608 -0.211294 -0.004667 -0.095539 -0.230835 -0.423153 9.93E-4 0.164838 0.002217 -0.129606 -0.030908 -0.196365 0.001997 -0.058145 -0.103573 -0.015988 0.097951 -0.217004 -0.188313 0.124806 -0.196921 -0.112282 0.040357 0.279074 0.163851 -0.074282 -0.059567 0.089936 -0.273294 0.00664 0.119053 0.353371 0.110191 0.1303 0.027766 -0.098271 -0.044242 0.232131 0.045747 -0.136987 -0.045869 -0.064353 -0.206957 -0.016284 -0.152337 -0.127364 -0.113076 -0.115775 -0.320882 0.043754 0.188598 -0.030996 0.319088 -0.120425 0.182343 -0.024166 0.351227 0.075546
sign -0.035871 0.033938 -0.112478 -0.256911 -0.184356 -0.491629 0.040945 -0.080033 -0.289154 -0.089612 0.008318 -0.021739 0.19408 0.117589 -0.001314 0.190311 0.215158 -0.008902 -0.065687 0.091484 0.041157 0.135385 -0.096906 -0.044867 0.407084 -0.06637 0.150012 0.032214 -0.068898 -0.079885 -0.123889 0.361849 -0.21129 -0.092593 0.137593 -0.060912 0.309084 -0.151989 0.162834 0.204714 -0.236505 -0.095915 0.006195 -0.172899 -0.068597 -0.147524 0.131346 0.16353 0.173187 0.007944 -0.024343 0.088592 0.017443 -0.010616 -0.058055 -0.077597 -0.144467 0.10186
proximity 0.014511 -0.187661 -0.133836 0.065858 -0.126919 0.100201 0.178981 -0.064679 0.129429 0.250303 -0.174281 -0.010356 -0.064803 0.167378 0.005986 0.009837 0.023901 0.088594 -0.049986 0.095531 0.151199 -0.065791 -0.076217 -0.090587 0.122941 -0.223749 -0.175973 -0.035793 -0.158251 -0.020098 0.054404 0.07367 0.196027 0.097887 -0.169699 -0.057612 0.107629 4.83E-4 -0.005969 0.103636 -0.044135 0.010648 0.046033 -0.012519 -0.183035 0.017138 -0.314821 0.080572 0.170566 0.154356 -0.055976 0.219359 0.092644 -0.072498 0.147949 -0.024606 0.005603 -0.156603
earning 0.112766 -0.028494 0.278652 0.068907 -0.01037 -0.208166 0.155594 0.732941 0.009417 0.18568 -0.18511 -0.054033 -0.063138 -0.170335 -0.219495 -0.023995 0.284659 0.017979 -0.325838 0.055511 0.196747 -0.047003 -0.245366 -0.381085 -0.132203 -0.337073 -0.076138 0.029658 -0.012051 0.046756 0.230055 0.009036 -0.158165 0.139599 -0.012588 0.356122 -0.015933 0.143956 -0.021173 0.116496 -0.054923 -0.126318 0.088368 0.300384 -0.096484 0.147476 0.042661 -0.003644 -0.203222 -0.101064 -0.167268 -0.129899 -0.064314 0.196655 0.153362 -0.105191 -0.046464 -0.237228
Harvard 0.148256 -0.192001 -0.166669 -0.326697 -0.431999 0.004977 0.174445 0.120439 0.104162 0.220621 0.112198 0.015956 -0.245829 0.121729 0.013614 0.060378 -0.272091 0.170369 -0.010388 0.053304 -0.050507 -0.200687 0.106754 -0.247732 -0.109443 -0.015439 -0.28919 -0.229497 0.079587 -0.197826 0.341749 -0.152994 -0.133482 -0.396928 0.239443 0.485109 0.315612 0.015034 -0.103992 0.109437 -0.026356 0.125291 -0.065924 0.247567 -0.250324 -0.64299 0.278478 0.062087 0.07348 -0.052139 0.3414 -0.31221 -0.469291 -0.210739 0.022225 0.347985 0.094232 0.298153
similarity 0.08735 0.001862 -0.075795 0.06851 0.064945 -0.031229 8.24E-4 0.135078 -0.149874 0.064388 -0.025208 -0.002013 -0.046395 0.007974 -0.034044 0.105981 0.08328 0.060053 0.078038 0.038141 -0.044938 0.042834 -0.078854 -0.0285 -0.015937 0.048535 0.03159 -0.056964 -0.0434 -0.042767 0.111277 0.100917 0.047604 -0.045529 -0.029869 0.019523 0.025611 -0.094035 0.078937 -0.128319 0.057304 0.061425 -0.083807 -0.071824 -0.05396 -0.016524 -0.032561 0.031755 -0.065518 0.010187 0.122944 -0.088767 -0.122405 -0.05102 -0.001001 -0.02975 0.078394 -0.031314
example 0.05193 0.08755 0.163629 -0.285246 -0.003818 -0.269469 0.34789 0.414902 -0.088484 0.221148 0.111509 0.019736 -0.074676 -0.042445 0.121843 0.003461 0.039519 0.105954 -0.095873 -0.015473 -0.116784 0.193653 -0.099244 0.022229 0.237701 0.055328 -0.128197 0.118869 0.003708 -0.251411 0.053276 0.140587 0.038321 -0.319783 0.211075 0.02295 0.076615 0.151677 -0.258384 -0.026595 0.228474 -0.266834 -0.06448 -0.107312 -0.235649 0.146152 0.011087 0.144874 0.196746 -0.061467 0.150761 -0.167774 -0.021894 0.010713 0.053006 0.138364 0.29606 0.374795
day -0.182431 -0.087682 0.369917 0.285123 0.013375 -0.073203 0.226303 -0.092883 0.030805 -0.008296 -0.376899 -0.054772 -0.057454 0.113477 -0.491015 -0.176453 0.001075 0.017789 0.00589 -0.04571 0.153472 0.146101 -0.02327 0.124932 0.254549 0.020497 -0.134655 0.18223 0.122654 -0.143467 0.230865 0.37445 -0.019085 0.023744 0.035251 -0.256052 -0.082057 -0.140524 -0.055191 0.190025 0.02374 0.216383 -0.181704 -0.041561 -0.226836 0.014797 0.007401 -0.036419 -0.313128 -0.359522 0.100489 -0.423216 0.220333 0.056411 0.176809 -0.080444 0.259626 -0.028146
gem -0.022229 -0.029782 -0.115818 0.012002 -0.166872 -0.118986 0.209224 0.070896 -0.060962 0.047236 -0.067293 0.015811 -0.180235 0.046763 -0.163178 0.054971 0.090394 0.227688 0.115199 0.086388 -0.04091 0.092709 -0.11475 0.085907 0.067289 0.024205 -0.044714 7.74E-4 0.023562 -0.0437 0.11317 0.146473 0.164871 -0.02726 -0.001326 -0.040179 0.017263 0.018168 0.038793 -0.128099 0.041143 -0.026075 -0.136541 -0.177128 0.072127 0.06415 -0.039237 0.060906 -0.02514 0.171973 0.002257 0.097603 -0.135596 -0.167089 0.061735 0.029464 0.127533 -0.016912
internet 0.034636 -0.188534 0.263727 0.238332 -0.102508 -0.245115 -0.240134 -0.208884 -0.135686 0.080524 -0.327885 -0.359825 -0.360799 -0.089067 0.003994 0.175029 -0.232494 0.157727 -0.170013 -0.181551 -0.109386 0.371204 -0.362598 0.358441 0.009735 -0.409381 0.288759 -0.194235 -0.145928 -0.22903 -0.269896 0.003842 0.456663 0.233001 0.174373 -0.212022 0.30099 0.205713 -0.093623 0.001762 -0.258318 -0.045638 -0.421826 -0.133894 0.045599 -0.192886 0.068554 0.027977 0.305758 0.185293 -0.247019 0.188322 -0.008597 -0.382086 0.091528 0.060323 0.259504 0.109362
galaxy 0.088842 -0.024719 -0.074011 -0.015791 -0.021506 0.058348 0.060971 0.231914 -0.030318 0.039951 0.013763 -0.064135 0.110482 -0.044563 0.082728 -0.188199 0.158832 0.205041 0.165179 -0.013087 -0.146531 0.126477 -0.006942 0.005016 -0.114111 0.100279 -0.00216 0.051464 -0.152079 0.181385 0.228024 0.045635 0.22813 -0.131002 -0.076988 -0.117432 0.174935 -0.117264 -0.019755 -0.056813 0.244146 0.024011 0.022449 0.027808 0.012973 0.084231 0.028962 -0.08387 0.02262 -0.04367 0.011247 -0.063234 -0.116958 -0.15993 0.16305 0.375032 0.194197 -0.078714
insurance -0.186527 0.004619 0.221658 -0.01296 -0.033543 -0.320067 0.179275 0.408939 -0.254251 -0.108724 0.416544 -0.103174 0.087557 -0.234872 -0.034884 -0.305385 0.062568 -0.132496 -0.228621 0.28249 0.167711 0.08063 0.199935 -0.339583 0.457343 -0.660301 -0.085324 0.009937 -0.025591 0.026873 6.87E-4 0.187783 0.226634 -0.289513 0.082656 -0.285057 -0.268523 0.218213 0.272156 0.183437 0.03001 -0.267758 -0.085641 0.486912 -0.117233 -0.102819 0.21531 0.428083 0.445168 0.367819 -0.113398 -0.318317 -0.006637 -0.234243 -0.29629 0.018518 -0.339558 0.012047
sex 0.116974 0.309063 -0.03082 -0.16862 -0.534015 -0.061859 -0.001864 -0.137827 -0.104015 -0.133699 -0.092576 -0.454594 -0.040669 0.219932 -0.220808 0.247866 -0.151249 0.134999 -0.25717 -0.468234 0.026947 0.211385 -0.447476 0.149931 0.20062 -0.638275 0.034633 -0.277097 0.20572 -0.055652 0.15122 -0.077639 0.463004 -0.315762 -0.051779 0.105492 -0.165736 0.240048 0.017341 -0.164789 -0.033089 0.05194 -0.235887 0.443888 -0.197425 0.101024 -0.095006 0.013063 0.131931 -0.094277 -0.123332 0.096398 -0.041747 -0.107184 -0.140581 -0.06283 0.10659 -0.055653
evidence -0.036447 0.085728 -0.188142 -0.311641 -0.373718 -0.046546 -0.044742 -0.258393 -0.184165 0.448598 -0.220633 -0.313437 -0.081534 0.055436 0.228481 0.130424 -0.013162 -0.327569 0.171791 -0.170227 0.029259 0.168449 -0.079989 -0.10021 0.007625 0.495946 0.161943 -0.068164 0.0816 -0.195945 0.342349 0.193852 0.268776 0.010759 0.225189 -0.226399 0.050874 0.169205 -0.445901 0.023026 0.195413 -0.437036 -0.294675 0.031629 -0.097504 -0.087852 0.033753 0.021968 0.267225 0.049838 0.169405 -0.080401 -0.594023 -0.425999 0.014332 0.078764 -0.195163 -0.081335
landscape 0.10247 0.019731 -0.330182 -0.051602 -0.038417 -0.157799 -0.003011 0.304873 0.145284 -0.032957 0.100298 -0.141638 0.169098 -0.072797 0.158762 -0.08039 -0.057007 0.335373 0.291416 0.341495 -0.453735 0.05932 0.007143 -0.193028 0.229759 0.257649 0.055237 0.174711 -0.032506 0.169496 0.158019 0.335028 0.150932 -0.363946 0.052598 0.067278 0.060198 -0.064045 -0.005217 -0.160697 -0.070968 0.029443 -0.225694 -0.209023 0.059665 -0.073745 -0.243942 -0.075486 -0.093501 0.165677 0.208668 0.239025 0.002001 -0.47943 0.361476 0.104819 0.008934 -0.054256
lad 0.113599 0.108647 0.086419 0.009734 -0.200634 -0.063244 0.105154 0.148237 -0.015577 -0.00616 -0.043501 -0.052874 -0.099183 -0.00507 -0.078179 0.043675 -0.029932 0.152653 0.090625 -0.019367 -0.030694 -0.01324 -0.105763 0.028757 0.075586 0.04992 0.106856 -0.115056 0.054366 -0.222128 0.066554 0.096023 0.159286 -0.015878 -0.059758 0.106233 -0.071528 -0.038331 0.078103 -0.022303 -0.001725 0.006468 0.013099 0.008651 -0.020865 0.026954 -0.122886 0.052135 -0.031125 -0.035916 0.073394 -0.06957 -0.085746 -0.035683 -0.02071 -0.014004 0.050187 -0.082613
asylum 0.19217 -0.169701 -0.107826 -0.041672 -0.334478 -0.487624 -0.053714 -0.091172 -0.221121 0.219959 0.044747 -0.163949 -0.126424 -0.23151 -0.123027 0.332936 -0.206451 -0.401615 -0.221702 -0.160401 -0.002092 0.054874 -0.071037 0.070948 -0.337471 0.05427 -0.176899 0.090871 -0.228292 -0.248032 0.016082 0.246877 0.189073 -0.050408 -0.213447 -0.181483 -0.041056 0.565174 0.162495 -0.108033 -0.145879 0.07047 -0.019151 -0.005121 -0.211394 -0.188191 0.188596 0.044854 0.091313 0.358211 0.214047 -0.160882 0.191891 -3.98E-4 -0.045054 -0.113558 0.025924 -0.120857
area -0.125265 -0.013893 -0.066772 -0.253803 0.020786 -0.32778 0.369034 0.025526 -0.022155 0.185853 -0.163185 -0.244221 0.139491 0.05054 0.122299 -0.171074 -0.099288 -0.006972 0.04123 0.138994 0.02298 -0.025955 -0.131318 -0.026476 0.211371 0.18713 -0.203918 0.096494 -0.060272 -0.001214 0.200788 0.174985 0.14626 0.014271 -0.043117 -0.390176 -0.013919 0.122778 -0.144153 0.123708 0.006734 0.213516 -0.163856 0.075245 -0.006086 0.099379 -0.555637 -0.002617 0.137967 0.005211 0.162388 0.162821 -0.18963 -0.015683 0.190814 -0.050572 -0.08264 0.098048
disability 0.071496 0.286489 0.069302 -0.10756 -0.061075 -0.263641 0.208061 0.147484 0.053673 0.173108 -0.00234 -0.005625 -0.06502 0.152093 -0.06627 -0.236369 -0.216885 0.004862 -0.316622 -0.188505 0.361043 -0.013978 0.042331 -0.264398 -0.049906 -0.35541 -0.135375 -0.178528 -0.074708 0.062414 0.215656 0.166918 0.078054 -0.022248 0.017459 0.125242 -0.049439 0.443461 -0.185806 -0.057191 -0.001931 -0.080343 0.041128 0.284326 -0.068143 0.243518 -0.040495 0.074872 0.411776 -0.137073 0.236173 -0.286304 0.085082 0.094144 -0.110778 -0.090344 -0.104131 -0.135586
experience 0.109257 -0.029032 -0.096001 0.159266 0.224234 -0.477 -0.016865 0.133235 0.188875 0.218789 0.130459 -0.507415 -0.030455 0.079975 -0.144251 -0.092079 0.014435 -0.001162 0.075552 0.370631 -0.091341 -0.083475 -0.368947 -0.239941 0.27394 -0.093931 -0.076559 -0.086868 0.181086 0.183609 0.403312 0.056857 0.253465 -0.275314 -0.01786 0.319188 -0.009701 0.161598 0.061289 0.020242 -0.096147 -0.123883 -0.004832 0.029656 0.041426 -0.114091 0.012336 -0.283673 0.158562 -0.117515 -0.082876 -0.301389 -0.103026 -0.140215 0.074263 -0.024743 0.385938 -0.144919
discipline 0.19729 0.108475 0.033977 -0.098819 -0.208763 -0.024328 0.051494 -0.24508 0.010464 0.161142 -0.001425 -0.144661 -0.030978 0.176294 -0.248329 0.00152 -0.129041 0.013035 -0.072309 -0.068978 0.189305 -0.173246 0.014522 -0.240598 0.010516 -0.08656 0.250987 -0.054075 -0.122584 -0.224321 0.516215 0.19348 0.28197 -0.05744 0.042924 0.052987 -0.11705 0.128726 -0.129826 -0.001116 -0.165535 -0.070713 -0.056213 -0.154129 0.059025 -0.270936 -0.122955 -0.180477 0.104744 0.095654 0.04584 0.050467 -0.106367 -0.267399 -0.036028 -0.289095 0.038962 0.038949
activity 0.123609 0.035205 -0.232402 -0.113735 0.255614 -0.009154 0.093676 -0.00312 -0.120647 0.353763 -0.143555 -0.335909 0.185956 0.138855 -0.01859 -0.071283 -0.24246 0.035079 -0.197693 -0.074708 0.203965 -0.144199 -0.074823 0.064756 0.375713 -0.13642 0.139547 0.183217 -0.003998 -0.194405 0.157681 0.232242 0.155077 -0.246618 -0.120886 -0.171264 0.083396 0.261976 -0.157766 -0.208515 0.024051 0.123038 -0.031015 0.191637 0.125577 -0.069245 -0.067409 -0.096941 0.237406 -0.243641 -0.034925 -0.00459 0.060114 -0.566301 0.125229 -0.060385 -0.17208 0.251391
quarrel 0.06792 -0.005895 -0.011649 -0.022209 -0.111119 -0.098689 0.002997 -0.034055 0.043495 -0.01802 -0.002499 0.00867 -0.054627 0.0526 0.004847 -0.020275 -0.024244 0.055022 -0.071591 0.017913 0.001484 -0.023169 -0.065013 0.014177 0.018657 -0.050256 -0.004401 -0.004196 0.035697 0.056662 0.037044 0.052875 0.068775 0.003004 -0.025353 -0.006404 0.006488 -0.012971 0.02317 0.051353 -0.011336 0.032118 0.059934 -0.041466 -0.00537 -0.015479 -0.011114 -0.010414 -0.018831 -0.008931 0.024038 0.003048 0.059803 -0.06236 -0.12153 -0.021324 0.025813 0.058698
population 0.26985 0.111722 -0.056996 -0.325477 -0.149489 -0.38734 0.155458 0.440248 -0.206192 0.134382 -0.217089 -0.628512 0.199196 -0.002578 0.147354 -0.287031 -0.047808 0.01314 -0.114192 0.090867 -0.059103 -0.062163 -0.045706 0.20075 -0.190325 -0.183353 -0.234997 0.334539 -0.477566 -0.093714 0.107941 -0.004864 0.522743 0.109836 0.250246 -0.403697 0.182948 0.648907 0.168855 -0.354986 0.456737 -0.065438 0.065115 0.378893 -0.244848 -0.055372 -0.165974 -0.026976 -0.257882 -0.07746 0.275908 -0.19196 0.453213 -0.01519 0.248742 0.10985 0.12963 -0.00262
music 0.104625 -0.055911 0.107141 0.047679 0.027579 -0.106259 -0.226283 -0.11495 0.307227 -0.125475 0.387479 -0.090488 -0.096901 -0.126442 0.059123 0.345204 -0.053094 0.697735 -0.193331 0.18334 -0.369456 0.126194 -0.18278 -0.06342 0.082164 -0.164991 0.055198 -0.14166 -0.166467 -0.207553 0.102888 0.192918 0.587884 -0.033159 -0.112474 0.165694 0.01667 0.053614 -0.118049 -0.071505 0.316642 0.398333 -0.24763 0.112461 0.23373 -0.043125 0.088493 -0.012205 -0.103735 0.256553 -0.245217 -0.014248 -0.131688 -0.247809 -0.171833 0.02177 0.32928 0.018561
law -0.037852 0.003955 -0.701832 -0.272084 -0.247939 -0.130309 0.126096 0.126646 0.21244 -0.009503 0.16732 -0.275039 0.289421 -0.150618 -0.514756 0.059669 -0.418047 -0.250277 -0.188204 -0.271035 -0.161732 0.113235 0.071093 -0.124521 -0.12425 -0.2874 0.073007 0.04283 -0.067337 -0.544711 0.408133 0.116343 0.003089 -0.268624 -0.195086 -0.296748 -0.15283 0.002475 0.010375 0.02624 0.105596 -0.026565 -0.218321 0.146787 -0.416505 -0.015451 0.244202 0.058528 -0.02946 0.454784 0.083391 -0.061712 0.051368 -0.318455 0.056315 -0.329669 -0.17908 0.493698
five 0.229669 -0.201417 0.081128 -0.35141 0.066349 -0.099337 -0.10186 0.052704 -0.004739 0.1389 -0.324675 0.154052 0.094854 -0.324753 -0.15864 0.076492 -0.178735 -0.002648 -0.166368 -0.097894 0.355904 -0.1119 -0.368336 -0.14126 0.053903 0.043833 0.091678 -0.055386 0.220152 0.155323 0.426798 -0.030583 -0.031635 -0.049991 -0.169917 -0.406028 0.21566 -0.099333 0.081886 0.04521 0.189225 -0.022077 -0.398655 -0.065842 0.091857 0.128791 0.281322 -0.028175 -0.073423 0.133976 0.051257 -0.131743 -0.019235 0.099324 -0.249816 -0.182117 0.143765 -0.180894
communication -0.021008 0.116524 -0.232429 -0.016784 0.262371 -0.58672 0.045232 -0.258841 0.04865 0.309642 0.106836 -0.500252 -0.019373 0.05729 -0.163241 0.166924 -0.158868 0.008191 -0.021646 -0.081001 -0.046652 -0.049634 -0.319071 0.074965 -0.082753 0.021791 0.185541 0.077645 -0.364039 -0.06946 0.393488 -0.106274 0.246367 0.0502 0.006986 -0.15847 0.279412 0.001137 -0.00783 0.050937 -0.158177 -0.114048 -0.133372 -0.022445 -0.15037 0.130237 -0.114269 -0.156415 0.37916 0.031317 -0.211307 0.122651 0.228577 -0.237713 -0.284396 0.038637 0.251057 0.159989
decoration -0.010741 0.053712 -0.039959 0.017375 -0.09035 0.010592 0.055928 0.00149 -0.006446 -0.018164 0.0488 0.015373 -0.065742 0.002121 -0.119007 -0.012142 0.017319 0.123355 0.058751 0.053474 0.027758 0.093223 0.036098 -0.015531 -0.017763 -0.009907 0.021145 -0.00118 0.081625 0.015942 -0.042789 -0.009924 0.123986 -0.037906 0.032444 0.098885 -0.048022 0.046555 -0.006833 0.007543 0.052588 -0.04416 -0.064045 -0.005644 -0.092607 0.055788 -0.094944 -0.080194 0.053739 -0.006517 -0.001769 0.044392 -0.059132 -0.030293 -0.032099 -0.02383 0.029986 0.055176
maker -0.33545 -0.126192 0.154323 0.547847 0.381041 -0.10029 -7.85E-4 -0.134749 -0.609813 -0.400907 -0.35698 0.101437 -0.319855 0.299624 -0.278572 -0.116623 0.242091 0.432096 0.023632 -0.43968 -0.258744 -0.101935 0.363653 -0.149738 -0.092455 -0.250449 0.119583 0.11447 0.16187 0.001579 -0.116255 0.006657 0.332884 -0.163276 0.035991 -0.358012 0.124126 0.011342 -0.213971 -0.044124 0.15871 -0.376009 -0.338786 -0.037164 0.559879 0.111793 0.221442 0.008778 -0.005798 0.177473 -0.315719 0.139194 -0.104626 0.037081 -0.039596 0.412666 -0.111483 0.008348
sea 0.254451 -0.274315 -0.281554 -0.079915 -0.216722 -0.038016 0.230612 0.015737 -0.033045 0.064236 -0.148247 0.108406 0.183284 -0.427144 0.092832 -0.153108 -0.093785 0.24515 0.50298 0.111179 -0.111909 -0.022672 -0.205561 0.056366 0.026107 0.351558 -0.121076 0.396971 -0.260568 -0.081776 0.133531 0.40951 0.107411 -0.161671 -0.133922 -0.165671 -0.108965 -0.062359 0.220206 -0.301334 0.235447 -0.047736 0.083221 -0.102048 -0.263807 0.129017 -0.03891 0.159927 -0.034881 -0.254291 0.04224 -0.075413 -0.208991 -0.437265 0.329614 0.246428 -0.288926 -0.350559
departure -0.203698 -0.04806 0.055176 0.08562 -0.245775 -0.431939 -0.411721 0.04118 0.001008 0.08534 0.05962 4.18E-4 -0.003279 0.012571 -0.203588 0.193593 0.145424 -0.08747 0.0327 0.317182 -0.057012 0.167751 -0.081038 -0.300623 0.169719 0.216958 0.325646 -0.111171 0.113035 -0.029687 0.261397 0.275187 -0.144644 -0.137677 0.131465 -0.125453 0.122737 -0.02314 -0.327026 0.014484 -0.033297 0.105194 0.296513 0.047602 0.212363 0.011957 -0.104732 0.185205 -0.12591 0.123956 -0.124867 -0.046625 0.35662 -0.032643 0.224724 -0.139276 -0.002814 -0.130547
laboratory -0.14205 -0.145705 -0.143898 -0.116341 0.199681 0.082313 0.168418 -0.058877 0.008467 -0.094667 -0.286437 -0.224416 0.083112 0.093129 -0.208381 -0.059881 -0.194228 0.312951 0.050516 -0.236432 0.115636 -0.133204 -0.013455 -0.35218 0.025546 0.360794 -0.153438 -0.036466 0.023494 0.129873 0.346005 -0.02691 0.155283 -0.187633 0.122817 -0.165577 0.208904 0.173863 -0.168333 0.017501 -0.025759 0.166451 -0.152754 -0.113322 0.017716 0.057323 0.322375 0.292861 0.325272 0.058348 0.125309 0.074711 -0.260468 -0.334256 0.188882 0.42307 0.074618 -0.105762
game 0.039701 -0.056111 0.198848 0.108417 0.387576 -0.17846 0.290348 0.062927 0.19474 -0.141322 0.002578 -0.399704 -0.22641 -0.163096 -0.176619 0.215779 0.104392 0.289897 0.085703 -0.31645 0.004097 -0.127089 -0.132441 -0.10709 0.12973 0.054285 0.18102 -0.222781 -0.323336 -0.584189 0.8109 0.235987 -0.008448 -0.219508 0.166035 -0.148147 -0.105678 -0.22311 -0.05922 -0.060269 -0.006181 0.042319 -0.07792 0.195944 0.10864 -0.179513 -0.166462 0.053032 -0.133997 -0.112233 -0.1353 0.171012 -0.117588 0.02241 0.045935 -0.261069 0.243195 -0.123863
peace 0.334094 -0.195773 -0.235697 -0.528429 -0.404833 -0.37852 -0.27334 0.107295 -0.170242 -0.235867 0.117879 0.016179 -0.388425 0.459249 0.113177 0.254688 -0.114943 -0.156362 -0.006282 0.338524 0.15618 -0.050309 0.007253 -0.121777 0.013606 -0.044965 0.31249 0.308204 -0.168811 -0.336505 0.191969 0.368664 0.057412 -0.246389 -0.079466 -0.416373 0.053517 -0.021397 0.648952 -0.33974 -0.219397 0.183894 0.416645 0.228833 0.249574 0.042487 -0.366828 -0.21707 -0.1763 -0.221879 0.121269 0.345763 -0.20804 0.084889 -0.264985 0.159252 0.243851 0.192288
CD 0.061563 0.026392 0.200433 0.136612 0.172883 0.10739 -0.053982 0.119107 -0.208031 0.261649 0.096694 0.118904 -0.15113 -0.071347 -0.305047 0.155392 0.331454 0.333825 0.009334 -0.00603 -0.207492 0.220617 -0.150709 -2.27E-4 0.025687 -0.195928 0.047851 -0.140585 0.14364 -0.028535 -0.055735 0.239811 0.259911 -0.266977 -0.035383 0.142247 0.07019 -0.159541 -0.112116 -0.162144 0.037101 0.18159 -0.250037 0.240514 0.09673 0.145584 0.173623 0.022999 0.066385 -0.024173 -0.460022 0.031443 -0.036339 -0.162922 -0.137227 0.139544 0.220672 0.027419
arrival -0.132129 -0.06914 0.04359 0.204947 -0.013848 -0.360941 -0.084549 -0.1967 -0.206029 0.061917 -0.182892 -0.007297 -0.021709 -0.146303 -0.079374 0.172394 0.128975 0.126193 -0.074081 0.15605 -0.072375 -0.040581 -0.016696 -0.057125 0.097493 0.428497 0.263477 0.137585 -0.005923 0.029717 0.08139 0.301921 -0.046756 -0.121661 -0.055607 0.150817 0.159896 0.01122 -0.090997 0.017669 -0.135875 0.221292 0.2321 -0.022811 -0.103572 -0.042619 -0.14738 0.276777 -0.076722 -0.099506 -0.177548 -0.149934 0.143059 -0.071361 0.145165 0.091778 0.061574 0.045856
approach -0.040774 0.123322 -0.120506 0.013202 -0.101419 -0.242592 -0.007423 0.139653 0.075637 0.201569 0.132621 -0.057057 0.073772 0.332112 -0.011576 0.134056 -0.050095 -0.30539 0.217288 -0.008132 -0.159938 -0.241262 -0.202101 -0.296324 0.29281 -0.041665 0.253418 0.070575 0.132102 -0.391019 0.308409 0.002112 0.239997 -0.118763 0.017334 0.085487 0.140375 -0.028401 -0.089872 0.173751 -0.04985 -0.250543 -0.03613 0.060171 -0.24023 -0.151783 0.097872 -0.071978 0.117495 -0.005036 -0.089315 0.040869 -0.11632 -0.321754 0.42785 0.221294 0.123942 0.055302
boy 0.007534 -0.037284 -0.179451 -0.016009 -0.216319 -0.371917 0.048929 -0.261928 -0.460362 -0.333887 -0.183328 0.019507 0.169609 0.055796 -0.084395 0.159216 0.014207 0.198895 0.13461 -0.179035 0.106116 0.188818 -0.066609 0.181674 -0.218309 -0.219062 0.001543 -0.584863 0.020777 0.010176 0.122898 0.47728 0.367382 -0.311148 -0.104257 0.273032 0.044347 0.030331 -0.069924 0.03619 0.134186 0.08163 0.219438 0.243122 0.148611 -0.028496 -0.606477 0.140336 0.0337 -0.110675 0.131821 -0.259704 -0.25625 -0.193359 0.084751 0.003036 0.074762 0.134919
viewer 0.157185 0.118791 0.177277 0.237576 -0.065415 -0.02395 0.10591 0.037927 0.004111 0.1653 -0.036807 -0.138428 -0.049236 0.062047 -0.061024 0.148457 0.168855 0.297597 0.050047 0.140847 -0.257066 0.282511 -0.112313 -0.064704 0.137366 -0.120445 0.142854 -0.145739 -0.047232 -0.031178 0.271979 0.105629 0.131171 0.018525 0.123876 0.066027 0.001967 -0.147183 -0.086068 -0.017217 -0.06274 -0.05248 0.031914 0.026454 0.090733 0.086902 -0.01854 0.030527 -0.111507 -0.073551 0.015959 0.01043 0.01919 -0.245281 -0.193461 -0.024626 0.158099 0.015636
popcorn 0.08788 0.104561 0.0408 0.086488 -0.080245 0.076986 0.166071 0.045507 -0.195422 -0.067421 -0.009514 0.200932 0.16973 -0.019428 -0.025886 -0.130624 0.085445 0.243319 0.121302 -0.032331 -0.012473 -0.027649 -0.064441 -0.03573 0.069532 -0.120818 -0.053564 -0.17795 0.014997 0.087492 -0.034719 0.078174 0.18017 -0.033918 -0.055194 -0.050795 3.79E-4 0.00196 0.056852 -0.02661 0.183182 -0.081889 0.02331 0.136593 -0.016736 0.108409 0.042042 -0.054606 0.075896 0.087901 -0.068881 -0.004979 -0.079871 -0.088883 -0.088558 0.069199 0.051121 -0.225315
basketball -0.080292 -0.415222 -0.090375 -0.44432 0.011206 -0.043067 0.19117 0.136954 0.345235 -0.042709 -0.119431 0.098035 -0.148759 -0.003863 0.085599 0.341658 0.062668 0.250664 0.01034 -0.463885 0.259747 -0.267107 -0.125438 -0.314729 0.170529 -0.37574 -0.187776 -0.311331 0.175827 -0.05276 0.677322 0.063052 -0.196188 0.012579 0.216932 0.515933 -0.17004 -0.148611 -0.308002 0.171643 -0.229397 0.038233 0.015926 0.343794 0.100656 -0.021123 -0.189111 0.206166 -0.047657 0.043886 -0.043972 -0.20243 0.034979 -0.396685 -0.124342 -0.076109 0.248227 -0.436467
cup 0.074361 0.181249 0.100868 0.201981 -0.07348 0.001918 0.451476 -0.053928 -0.342961 -0.253909 0.105321 0.08371 0.045992 -0.067987 -0.363455 -0.112983 0.316785 0.310907 0.206918 -0.046079 0.055868 0.026241 -0.279295 0.063646 0.271558 0.003773 -0.063765 -0.087138 -0.099825 -0.155114 0.152008 -0.075293 -0.052063 -0.434259 -0.064913 -0.144293 -0.012041 -0.018111 0.16774 -0.121912 0.13256 -0.216004 -0.148968 -0.295539 -0.160496 0.033728 -0.180579 0.102797 -0.276434 -0.322455 -0.274529 0.056824 -0.125094 -0.02004 0.164566 -0.133118 0.324721 -0.104391
concert -0.025113 -0.255378 0.17421 -0.033629 0.059539 0.027969 -0.02086 -0.111073 0.17014 -0.102788 -0.175871 0.267462 -0.223583 -0.121937 -0.108586 0.356091 0.303441 0.36996 -0.376803 0.05724 -0.35679 0.261667 -0.166701 -0.463617 -0.063026 -0.050932 0.023762 -0.003808 0.015553 -0.393789 -0.046098 0.290023 0.361506 -0.173441 -0.192267 0.010674 0.001052 -0.194508 -0.059987 0.166745 -0.005975 0.719584 0.199712 0.318785 0.259812 0.147624 -0.1111 -0.002004 -0.114806 -0.153212 -0.096848 -0.039505 0.203826 -0.046006 -0.031255 0.234132 0.236331 -0.233584
reason 0.033446 -0.074873 -0.005665 -0.161441 -0.093785 -0.269753 0.253822 0.072496 -0.069276 0.20051 -0.053593 -0.151347 -0.098494 0.019551 -0.001059 0.097939 0.266216 -0.318371 -0.092522 0.012148 -0.117647 0.044183 -0.120052 0.117367 0.206649 -0.119319 0.254398 -0.249537 -0.049472 -0.165466 0.326549 0.106753 0.102626 -0.029477 0.321567 -0.198952 0.143094 -0.01 -0.18522 -0.036331 0.362223 -0.411746 -0.228391 -0.127481 -0.265388 -0.066967 -0.235484 0.311599 0.137859 0.085438 0.251894 -0.160212 -0.301869 0.003289 -0.030042 -0.231873 -0.070412 0.240433
deposit 0.138436 -0.04085 -0.251304 0.260271 0.01903 -0.035635 0.276798 0.406212 -0.256445 0.14962 0.158463 -0.114811 -0.18319 -0.241161 -0.170577 -0.099299 0.095849 0.04107 -0.177541 0.355298 0.412974 -0.166522 -0.009123 -0.071835 0.026468 -0.363966 -0.215933 -0.129074 -0.097872 0.014777 -0.143067 0.013091 -0.025782 -0.28624 -0.146378 -0.372049 0.073969 0.309934 -0.158 0.05614 -0.083613 -0.363881 -0.111318 0.198346 -0.153131 0.086117 -0.086996 0.214902 0.075525 0.067546 -0.273837 0.102926 -0.269699 0.112029 0.300714 -0.180782 0.08374 0.087434
automobile -0.024478 -0.161635 -0.05489 0.043943 0.055508 -0.264101 0.147944 0.29821 -0.012267 0.100346 -0.032295 -0.027237 0.11178 0.054901 0.0081 -0.120056 0.039782 0.123627 0.017063 0.001373 -0.121835 -0.030244 0.133644 -0.024585 0.077907 0.010373 -0.001881 0.009906 -0.04544 0.042406 0.034468 -0.059423 0.007364 -0.013522 0.18075 -0.023397 -0.031901 0.003262 0.067215 -0.026548 0.198857 -0.098809 -0.113139 0.082707 0.15139 0.083456 0.08859 0.065371 0.172625 0.164808 -0.06932 -0.122097 0.112824 -0.136382 0.038746 0.081841 -0.076657 0.066749
street -0.273762 0.01181 0.173132 -0.116879 -0.589865 -6.34E-4 0.174775 0.058362 -0.033507 -0.002885 -0.041104 -0.014182 0.140884 0.175546 -0.061724 0.091785 -0.160053 0.282596 0.077482 0.145513 -0.156131 -0.001141 -0.204727 0.257685 0.289432 -0.060233 -0.111918 0.061119 -0.002106 -0.063939 -0.199275 0.036717 0.21729 0.006656 0.015416 -0.107095 0.257467 -0.234478 -0.242325 0.009923 -0.425888 0.233643 -0.290774 -0.110073 0.183578 0.088418 -0.30588 0.161219 0.126065 0.127626 -0.348105 -0.092062 -0.011714 -0.130742 0.166031 -0.366991 -0.031198 0.039712
liability -0.167589 0.139504 -0.265648 -0.099403 -0.161991 0.001206 0.112788 0.317923 0.070995 0.332929 0.423065 -0.004069 -0.046254 0.210858 -0.175776 -0.217289 -0.107612 0.020078 -0.2451 -0.116278 0.207438 0.070899 0.014292 -0.299946 -0.037378 -0.28526 0.050567 -0.165281 0.27335 -0.046712 -0.029798 0.040661 0.113283 -0.195987 0.061194 -0.301294 -0.363156 0.35392 -0.033464 -0.207137 0.174565 -0.206877 0.142609 -0.007658 0.034706 0.027541 -0.008841 0.085385 0.160985 0.205331 -0.039262 0.019472 -0.030225 0.041709 0.035221 -0.063398 -0.058437 -0.027527
rock 0.050513 -0.047899 0.03276 -0.076233 -0.27895 0.103894 0.174075 0.169393 0.005831 -0.318788 0.054056 0.133882 -0.026154 -0.225527 -0.042516 -0.080306 0.237959 0.637857 0.110697 0.103622 -0.359238 0.115596 -0.166752 -0.08891 0.03774 0.165864 0.079714 -0.01026 -0.135799 -0.112118 -0.192352 0.206958 0.434757 -0.105822 -0.152887 0.088165 -0.028568 -0.159852 -0.041991 -0.077977 0.347334 0.04653 -0.127215 0.182521 0.295586 0.192926 -0.088279 -0.102752 -0.043676 0.207649 0.050742 0.141445 -0.168524 -0.355238 -0.007921 -0.0045 0.040327 -0.282322
calculation -0.023593 0.123305 -0.028931 0.065654 -0.11934 0.004575 -0.032395 0.199348 -0.033646 0.210268 0.139172 -0.085498 -0.039838 0.075028 -0.104732 0.148854 -0.109639 -0.071311 -0.126599 0.154815 0.145411 -0.059822 0.078283 -0.126699 -0.052757 -0.11881 0.056583 0.117069 -0.013079 -0.078343 -0.131256 0.215818 0.159509 -0.109829 0.026779 -0.044502 -0.004951 0.113841 -0.088414 -0.16585 0.134943 -0.143841 -0.077248 0.006931 -0.036961 -0.211077 0.028261 -0.060935 0.061639 -0.114997 0.056841 0.095849 -0.073219 -0.222921 -0.006707 0.135786 6.0E-4 -0.085068
stroke -0.205283 0.172233 0.28676 0.177329 0.012484 -0.408522 0.332557 -0.106744 -0.270519 -0.052776 -0.202689 0.010143 -0.080179 0.009835 -0.106711 -0.059998 -0.025003 0.184685 0.150391 0.074843 0.403552 -0.062607 0.128172 0.020371 0.010416 0.162799 0.194914 -0.124883 -0.374473 0.11061 0.4485 -0.042278 0.217831 -0.545842 0.062168 -0.200814 0.188538 0.176566 0.198896 -0.186561 0.192677 -0.382006 0.057896 0.147373 0.025978 -0.267077 0.106152 0.145461 -0.15378 -0.368935 0.0154 -0.303799 -0.047308 0.128331 0.032089 0.100628 -0.255894 -0.238422
operation -0.437687 -0.137813 -0.193021 0.038037 0.030623 -0.46559 0.078412 -0.020299 -0.035062 -0.001841 -0.303834 -0.150424 -0.266155 0.101561 -0.002698 -0.093651 -0.053003 -0.371629 0.184638 -0.120462 -0.006876 0.029871 -0.061472 -0.176679 0.0295 0.354211 0.225461 0.135604 -0.228482 0.072643 0.192785 0.092559 0.05341 -0.078184 -0.310034 -0.318013 0.301113 0.146442 -0.166313 0.021275 0.075785 -0.032965 0.028448 0.263076 0.34835 0.017278 -0.210211 0.02604 0.425264 -0.201532 -0.015995 0.048124 -0.018428 0.057857 0.268489 -0.008548 0.126249 0.096079
abuse 0.121135 0.129831 0.20875 -0.230625 -0.575173 -0.246306 -0.125991 -0.294421 0.090156 0.290192 0.119005 -0.174415 -0.195907 0.133279 0.030385 -0.015247 -0.052374 -0.059169 -0.29192 -0.562225 -0.025981 0.205707 -0.097348 0.40943 -0.01414 -0.381659 0.080443 -0.040937 0.027184 -0.22505 0.276467 0.107567 0.486344 -0.228222 -0.201227 0.18241 0.198474 0.378175 -0.102607 -0.325388 0.030569 0.096769 0.004309 0.228803 0.14912 -0.172929 -0.028056 0.047182 0.139929 0.109596 0.224055 0.279632 -3.57E-4 0.00448 0.029659 -0.352547 -0.245556 -0.132218
zoo 0.156508 -0.143076 -0.089295 -0.023885 -0.073216 -0.067568 0.160485 -0.178418 -0.132643 -0.197153 -0.360496 0.30462 -0.042068 -0.002672 0.183144 -0.147668 0.115981 0.125477 0.089886 -0.152323 -6.23E-4 0.03629 -0.329312 -0.018736 -0.065979 0.126735 -0.443016 0.029639 -0.124837 0.207605 0.071767 0.236808 0.303742 -0.195868 -0.154777 -0.197262 0.131594 -0.026917 -0.214202 0.229816 -0.065123 0.199646 0.044115 0.050052 -0.117431 0.037315 -0.123819 0.100085 -0.060797 -0.04653 0.377323 0.069031 -0.081765 -0.082099 0.285616 0.043699 -0.029737 0.031788
ticket -0.068858 -0.382096 0.036084 0.169746 -0.074413 -0.13131 0.295984 0.241005 -0.105721 0.329105 -0.262158 0.231935 -0.096321 -0.45605 0.047028 0.184123 0.337061 0.228466 -0.085099 0.022682 -0.174482 0.24971 -0.118642 -0.225651 0.604936 -0.446968 -0.166581 -0.292841 -0.009107 -0.255032 -0.108462 0.310283 -0.255696 0.44767 0.151612 -0.308579 -0.341429 -0.036142 0.01682 -0.118064 -0.229339 0.17929 0.069018 0.172428 -0.289812 0.053615 -0.119199 -0.162049 0.261746 -0.074581 -0.436524 0.136618 0.219217 0.055102 -0.0631 -0.164695 0.055765 0.108068
bread 0.207451 0.052732 0.037236 -0.035377 -0.065339 0.097576 0.546444 -0.086186 -0.481526 -0.288006 0.118486 0.212869 -0.158286 0.061235 -0.142758 -0.160204 0.028457 0.276465 0.182256 -0.043161 0.087133 -0.070345 -0.30092 0.060851 0.298941 -0.144273 -0.122675 0.127458 0.077582 0.093926 -0.154247 0.281613 0.268841 -0.311913 -0.132409 -0.030615 0.073932 -0.002086 0.052801 -0.0915 0.494582 -0.096952 -0.09755 -0.169457 -0.49475 0.105991 0.059285 -0.147586 -0.058372 0.176152 -0.301925 0.077874 -0.319159 0.042291 -0.006582 -0.143968 0.255931 -0.096659
report -0.203071 0.329042 -0.026415 -0.04573 -0.008201 -0.089469 -0.173264 -0.217763 -0.169543 0.227011 -0.109712 -0.167151 -0.085195 -0.171625 -0.118863 -0.089666 -0.289859 -0.260598 -0.07485 -0.232444 0.112991 0.122152 0.072598 -0.336692 0.307062 -0.125026 -0.126352 0.080094 0.063432 -0.228362 0.187384 0.384489 -0.071437 0.095972 0.0636 -0.270662 0.433759 -0.082346 -0.18251 0.016805 0.211327 0.01589 -0.136947 0.19581 0.233833 -0.01683 0.297624 -0.289903 0.200696 -0.222668 0.210473 -0.070465 -0.090132 -0.400732 0.122645 0.14014 -0.384517 0.003469
smile -0.01344 0.045172 0.329562 -0.069288 -0.302891 -0.118265 0.040836 0.176449 -0.356609 -0.063868 0.005723 -0.001743 -0.195103 0.146119 -0.207508 0.064753 0.320686 0.345424 0.157988 0.131592 -0.143863 -0.089337 0.029385 0.117182 0.19273 -0.017553 0.134114 -0.181273 0.034531 -0.211624 0.333387 0.232727 0.183891 -0.420486 0.045092 0.234925 -0.144015 -0.221141 0.103882 -0.029944 -0.148078 -0.271707 0.304389 0.023735 -0.268288 0.126106 -0.394889 -0.035176 -0.22638 -0.038561 -0.193376 -0.193269 -0.399443 -0.262179 5.3E-5 -0.144328 0.233769 -0.01873
lesson 0.162581 -0.020345 -0.036672 -0.144989 -0.132755 -0.345376 -0.091998 0.229126 0.027086 -0.037651 0.102484 -0.11195 -0.232495 0.097416 -0.043095 -0.054076 -0.079216 -0.053311 -0.028827 0.0088 -0.075207 0.144365 -0.076639 0.054159 0.129536 -0.104736 -0.010785 -0.089388 -0.086655 -0.058502 0.346294 0.342233 0.04671 -0.15281 0.15545 0.210528 0.201312 -0.059472 -0.050603 0.056292 0.08923 0.184781 -0.269883 0.094177 -0.097354 -0.035299 -0.019097 0.109799 -0.031606 -0.199107 0.280765 -0.166391 -0.417127 -0.569862 -0.034164 0.193594 0.366659 0.20116
hill -0.195061 -0.002286 0.087299 -0.23036 -0.219101 -0.091301 0.496776 0.364024 0.036571 -0.111625 -0.256986 0.093477 0.422809 -0.199663 -0.137203 0.127244 -0.058507 0.239928 0.244659 0.043507 0.315218 -0.153687 -0.286447 0.043444 0.303844 0.169904 -0.138614 0.334003 -0.164481 -0.209359 0.110564 0.290156 0.30255 0.169885 -0.068026 -0.010509 0.048225 0.084837 0.261522 0.05519 0.006432 0.113995 -0.125466 -0.246228 0.004191 0.158337 -0.460865 -0.034914 -0.061578 -0.003451 -0.135352 -0.131118 -0.204645 -0.35926 0.24982 -0.137669 -0.029762 -0.0378
preparation 0.036971 -0.123253 -0.072816 -0.210397 0.092063 -0.099151 0.225768 -0.120903 0.03169 0.087882 -0.112014 0.06003 -0.023457 0.241834 -0.306422 -0.06673 -0.249071 0.041519 0.046181 0.048106 0.258558 -0.063218 -0.106942 -0.277642 0.1054 0.010363 0.145752 0.14964 -0.11497 -0.023495 0.216541 0.172353 -0.074515 0.002801 0.166491 -0.04386 -0.025692 0.058975 -0.022893 -0.195543 -0.046311 0.270861 0.02599 -0.036399 -0.039484 0.111294 0.072794 0.113064 0.068462 -0.046266 -0.114449 -0.103586 0.104631 -0.058709 0.014423 -0.086967 0.128629 -0.091711
Yale 0.108992 0.199197 -0.181493 -0.321035 -0.520737 8.76E-4 0.327588 0.028921 0.199611 0.040619 -0.143827 0.09883 -0.211237 -0.243455 -0.157138 -0.034237 -0.285357 0.356943 -0.086139 0.147313 -0.006625 -0.153786 0.032328 -0.074133 -0.045745 -0.070879 -0.394146 -0.154204 -0.008619 -0.080935 0.460056 0.231489 -0.093076 -0.105908 0.028318 0.257537 0.230864 -0.042487 -0.298476 0.273371 0.092731 0.241374 -0.094549 0.204973 0.066672 -0.307988 0.1005 -0.020301 0.140546 -0.176855 0.164527 0.039054 -0.400742 -0.254791 0.095825 0.064097 0.130248 0.180716
recommendation 0.073824 0.098259 0.04175 0.014292 -0.011364 -0.047139 0.191712 -0.174678 -0.185464 0.313617 0.11563 -0.253174 -0.057762 0.205281 -0.216008 -0.096808 0.044184 -0.119105 -0.240531 0.237538 -0.074739 0.117804 0.112792 -0.287227 0.086669 0.043171 -0.290589 -0.151362 0.235527 -0.205304 0.090727 0.024273 -0.121706 0.060954 0.05995 -0.338593 -0.048627 0.034754 -0.119867 -0.126559 0.085125 -0.291885 -0.066122 0.08069 -0.015536 0.037145 0.270654 0.15739 0.379482 -0.032997 -0.005428 -0.057871 -0.041845 -0.164048 0.076611 0.209617 0.074595 0.038935
canyon -0.042057 -0.048602 0.079874 -5.35E-4 -0.064062 -0.073471 0.068408 0.058222 -0.030878 0.014016 -0.141245 0.014483 0.106891 -0.057616 0.099054 -0.047983 0.018337 0.161509 0.100137 0.034428 -0.054942 0.00239 -0.051513 0.023441 0.055076 0.084181 -0.062469 -0.028111 -0.045339 -0.037425 -0.00873 -0.01498 0.077676 -0.035026 -0.018512 -0.009462 -0.031403 -0.01169 0.022781 -0.016567 0.016297 0.048958 0.01305 0.07745 0.068622 0.03912 -0.048995 0.011326 -0.019846 9.9E-4 0.0336 0.063586 -0.001065 -0.053024 0.007255 -0.02908 0.019222 -0.060759
museum 0.144863 -0.193438 -0.148691 -0.014148 -0.206627 0.004686 -0.103108 0.165058 0.328846 0.149176 0.135413 0.1729 -0.314872 0.015785 -0.245106 0.011579 0.156812 0.425328 -0.0132 0.37776 -0.319432 0.125772 -0.05083 -0.490928 0.044816 0.368919 -0.428186 -0.063197 0.114244 -0.082346 0.062318 0.360531 0.148637 -0.307377 0.033166 0.028266 0.070943 0.154959 -0.290111 0.069142 -0.164471 0.427805 -0.252917 -0.08622 0.086771 0.145095 -0.103815 -0.105534 0.035021 0.068842 0.123301 -0.015696 -0.270826 -0.183373 0.325385 0.139675 0.170565 0.220955
board -0.180801 -0.173692 -0.028796 0.157289 -0.108846 -0.022661 -0.159692 -0.281557 0.020181 -0.134781 0.058953 0.030641 0.170214 -0.097875 -0.318302 0.074002 -0.169828 0.116031 0.141355 0.362594 -0.05493 -0.205709 -0.142797 -0.474556 0.031388 -0.425949 -0.420234 -0.145523 0.162301 0.00697 0.212123 -0.040882 -0.098034 0.083888 -0.305477 -0.265355 -0.247691 0.007072 -0.128163 -0.242096 -0.037884 -0.066553 -0.043531 0.008638 0.153995 -0.162408 -0.096524 0.281857 0.130158 -0.046046 0.046347 -0.007385 0.180022 -0.054785 0.14254 0.082973 0.121541 0.080296
health -0.269496 0.225394 0.269749 0.360892 -0.186014 -0.338601 0.03611 -0.137305 0.299323 0.158482 -0.162799 -0.193789 0.02753 0.46375 -0.109536 -0.329349 -0.169516 -0.053482 -0.055296 -0.036132 0.448317 -0.068964 0.176363 -0.013988 -0.01532 -0.725481 -0.183678 0.095117 -0.18439 -0.014032 0.176815 0.038458 0.122826 -0.1362 0.134274 0.095249 -0.174062 -0.18812 0.211924 -0.05439 0.046914 0.126075 -0.158833 0.247273 -0.316128 0.100065 0.155656 -0.019268 0.046932 0.423561 0.285711 -0.238883 0.217796 -0.109425 0.038499 0.224782 -0.110668 -0.033092
depression 0.118761 0.446258 0.155453 0.174074 -0.147078 -0.375569 -0.046479 0.266791 -0.106416 0.069894 -0.1568 -0.140688 -0.192812 0.318834 0.147594 -0.224229 -0.167886 0.147398 0.026716 -0.047395 0.260215 -0.344396 0.127092 0.259916 0.283034 -0.056767 0.259928 -0.078003 -0.242111 0.124704 0.532785 0.154347 0.128672 -0.633892 7.98E-4 -0.023713 0.220323 0.297865 0.170956 -0.289728 0.409112 -0.103781 0.026058 0.259065 -0.092482 -0.036821 0.068533 0.11995 0.259462 -0.267291 0.084768 -0.33461 0.088737 -0.155634 -0.281449 0.093831 -0.20875 -0.253885
row -0.125138 -0.011494 0.411799 -0.037351 -0.086507 -0.167129 -0.158702 -0.06523 -0.403734 0.071021 -0.085323 -0.062749 0.141287 -0.245125 -0.348062 -0.070453 0.134935 -0.009045 -0.226126 -0.264207 0.089075 0.134344 -0.121491 -0.278642 0.24467 0.005746 -0.046294 0.033454 -0.015477 0.036754 0.201678 0.087013 0.043755 -0.133015 0.174426 -0.050126 -0.066324 0.023959 0.209283 -0.078896 -0.162779 -0.079768 -0.337958 -0.134315 0.419421 -0.072657 -0.093925 -0.067147 -0.269299 0.0616 0.175115 0.118442 0.060086 -0.103377 0.045256 -0.56198 -0.004442 2.48E-4
category 0.20543 0.033033 0.161413 -0.134109 -0.032134 0.018552 0.288802 0.168899 -0.099521 0.126071 -0.050283 -0.019035 0.102301 8.31E-4 -0.150262 -0.209461 0.096908 0.111619 -0.028235 -0.057601 -0.200484 0.1367 0.153209 -0.227287 0.176616 -0.194459 0.032163 -0.195889 -0.129634 -0.219536 0.273823 -0.10819 -0.002321 -0.167508 0.228306 -0.012736 0.042807 -0.036959 -0.076127 -0.222399 0.291089 0.012085 -0.283915 0.122708 0.217154 -0.092569 0.241842 -0.188783 0.047614 -0.122869 0.092359 -0.129056 0.246773 0.061009 0.132493 0.12139 0.211968 0.044447
criterion -8.36E-4 -0.00991 0.031926 0.07148 0.028148 -0.0497 0.037201 0.057551 -0.010603 -0.001734 -0.005325 -0.040132 -0.028695 0.027404 -0.034272 0.015135 -0.015133 0.037764 0.029995 0.091434 -0.089188 0.024484 -0.043183 -0.086758 0.01575 -0.069742 -0.072893 -0.064963 -0.006375 -0.044597 0.047499 -0.0654 0.04013 -0.05998 -0.018801 0.005393 0.014357 -0.031099 -0.043535 -0.071831 0.002447 -0.036687 0.001008 -0.024631 -0.007963 0.001745 -0.051741 0.054928 0.038171 0.021438 0.078821 0.019704 -0.040065 -0.035796 -0.030598 0.001417 0.103904 0.004874
avenue 0.109847 -0.05512 0.086746 -0.104584 -0.026366 -0.049352 0.155097 0.050694 0.021422 0.051201 0.036255 0.018157 -0.002798 0.051925 0.018967 -0.022102 0.055594 0.045805 -0.051714 0.062909 -0.001953 -0.159961 -0.064844 -0.013311 0.142015 0.004899 0.044586 0.126122 -0.134471 -0.027855 0.046584 0.034132 0.086722 -0.072362 -0.059997 -0.048523 -0.063246 0.032094 -0.031872 0.029735 -0.056488 0.019238 -0.080572 -0.010463 0.017626 -0.063412 -0.108417 0.004287 -0.026 -0.002365 -0.094214 -0.017748 -0.078231 -0.14671 0.177686 -0.010488 0.018276 -0.022113
hypertension -0.167048 0.083435 0.068911 -0.033887 -0.094713 -0.169182 0.185658 -0.057823 -0.001633 0.055872 8.83E-4 -0.120975 -0.081369 0.103958 -0.045695 -0.059128 -0.066789 0.140695 -0.066899 0.062796 0.122424 -0.103416 -0.05745 -0.064505 -0.068103 -0.186348 0.007175 -0.033665 -0.09136 -0.040812 0.22754 0.063537 0.127369 -0.189362 -0.006676 0.009912 0.044517 0.103163 -0.096363 -0.218387 0.131322 0.016268 0.012827 0.02857 -0.021466 -0.17596 0.123164 0.033737 0.186329 0.012462 0.164037 -0.078467 -0.001321 -0.12258 -0.146084 0.181735 0.045283 -0.084003
month -0.243393 -0.061315 0.306017 0.187905 0.165696 -0.168054 0.212551 0.096427 -0.103691 0.082204 -0.134642 0.207754 0.063371 0.261231 -0.251549 0.158044 0.014642 -0.053765 -0.434586 -0.291472 0.254912 0.188076 0.051858 0.259311 0.162438 0.279421 -0.104852 -0.129947 0.459497 -0.17393 0.368307 0.57071 -0.249639 -0.052087 -0.038305 -0.449188 -0.152252 0.104197 -0.181389 0.299776 0.087648 -0.167531 -0.417691 0.010095 -0.169772 0.166734 0.292397 -0.258417 -0.545727 -0.252707 0.285764 -0.136816 0.189845 0.046542 0.465299 0.05548 0.139604 0.359196
delay -0.283302 0.051135 -0.105298 0.277903 -0.046612 -0.187212 -0.264772 -0.213796 -0.151119 0.098141 -0.123819 0.09853 0.281823 0.28273 -0.053935 -0.081762 0.03676 -0.104084 0.044055 -0.005017 0.290398 0.21905 -0.009804 -0.205304 -0.030472 -0.088452 0.255753 -0.093115 -0.056918 -0.132482 0.117653 0.381859 -0.122087 -0.136279 -0.005265 -0.474181 0.117185 -0.056053 -0.195179 0.174127 -0.190912 -0.089487 0.150145 -0.004866 -0.221437 -0.153332 0.237578 0.513792 -0.02993 -0.068567 0.099786 0.138321 0.20571 -0.043074 -0.053689 -0.115605 0.132727 -0.240719
shore -0.148747 -0.089411 -0.033209 -0.187171 -0.050743 -0.289184 0.039713 0.142063 -0.02317 -0.073025 -0.442031 0.159871 0.007577 -0.101296 0.181955 0.140863 0.055956 -0.157294 0.282985 0.338642 0.298222 -0.227106 0.140736 0.123721 -0.11591 -0.227931 0.035116 0.203112 -0.052245 -0.088556 -0.398665 0.329834 0.061791 -0.016922 -0.149143 -0.229822 0.213966 0.064183 0.440258 0.261093 -0.278705 -0.269634 0.146913 -0.216845 0.201009 0.101466 -0.173732 0.318247 -0.10734 0.123369 -0.057353 0.299163 -0.261277 -0.216272 0.337034 0.116904 0.017822 0.002965
credibility -0.103847 -0.067606 -0.153974 0.196888 -0.226891 -0.022802 -0.180758 0.088896 -0.003968 0.038222 -0.106887 -0.22204 -0.348913 0.190431 0.187597 0.239885 -0.130478 -0.310537 -0.184264 0.01718 0.014513 -0.07649 0.04744 -0.09643 0.025662 -0.119854 0.214412 0.076019 -0.293287 -0.128914 0.164208 0.160727 0.17414 0.106623 0.15963 -0.06197 0.163826 0.04586 0.011046 -0.056982 -0.137117 -0.454994 -0.072894 0.039105 0.221261 -0.161149 -0.03652 -0.065315 -0.099472 0.316581 -0.03719 -0.038654 -0.107627 -0.306696 -0.013953 -0.112361 -0.085202 0.031872
series 0.004482 0.101147 0.288308 -0.213138 0.04775 -0.326719 -8.06E-4 0.003204 0.011829 -0.024351 -0.048553 0.107839 -0.272166 -0.058175 0.005558 0.139183 -0.062832 -0.095227 -0.074684 -0.10372 0.026781 0.18889 -0.093352 -0.295566 0.255763 -0.002887 0.323465 -0.141861 -0.038557 0.076155 0.244856 0.111377 0.197879 -0.281511 0.075038 -0.114469 0.130818 -0.2896 0.084936 0.039435 0.010206 0.156652 -0.204258 0.291299 0.277916 0.146588 0.186235 -0.096933 -0.141347 -0.237069 0.124042 0.422966 0.14567 -0.165121 -0.054711 -0.135021 0.247253 -0.158932
television -0.210109 0.108287 0.112907 -0.136579 -0.084994 0.115685 -0.045448 -0.280939 -0.15633 -0.090246 -0.11344 -0.059427 -0.447448 -0.207516 0.332555 0.352352 0.314248 0.533694 -0.167476 -0.143308 0.016502 0.126592 0.065857 -0.183805 0.152969 -0.20397 0.123318 -0.091722 -0.209303 -0.016437 0.098169 -0.016382 0.360584 0.487828 -0.066843 -0.096327 0.021903 0.106541 -0.004538 0.015781 -0.094881 0.063495 0.098278 0.361519 -0.102482 0.178995 0.043162 -0.090032 -0.197735 0.049184 -0.146766 0.150125 0.473321 -0.458772 -0.325416 -0.062757 0.275498 0.124241
hardware -0.004959 -0.133131 0.107442 0.114815 0.348044 -0.241609 0.342053 0.272314 -0.236706 0.035851 0.067503 -0.199553 -0.187837 0.107516 -0.005524 0.072204 -0.018425 0.430135 0.052226 -0.108162 -0.155014 -0.107334 0.106523 -0.155238 0.058948 -0.070293 0.17775 0.033579 -0.061553 0.057251 0.139871 0.008046 0.293222 0.00515 -0.092006 -0.229095 0.122171 -0.065532 -0.062368 0.063392 -0.00669 -0.084034 -0.312275 -0.09375 -0.059089 0.074657 0.205051 0.207253 0.435541 0.172125 -0.336604 0.254429 0.095638 -0.138413 0.182266 -0.019339 0.157664 0.182303
development -0.135429 0.041373 -0.163141 -0.123993 0.293374 -0.269128 0.138078 0.193445 0.221372 0.120747 -0.110323 0.12241 -0.105045 0.295156 0.021475 -0.056981 -0.293941 0.170438 -0.107961 0.382737 0.146264 -0.005046 0.10574 -0.350502 0.08013 -0.142785 0.125014 0.318219 0.105756 0.147721 0.022619 0.160823 0.12297 -0.018959 -0.135389 -0.260811 0.045094 0.297284 0.073899 -0.0847 -0.111462 0.17743 0.103332 -0.156335 0.272846 -0.099629 0.021826 -0.203919 0.093593 0.060908 0.25961 0.059599 -0.137995 -0.090905 0.16322 0.272376 0.284084 0.095618
crew -0.14742 -0.163332 -0.15058 0.279115 0.180216 -0.410634 -0.211533 -0.579428 -0.277874 -0.083742 0.052798 -0.121349 0.235767 -0.308854 -0.393991 0.143709 -0.068318 0.260301 0.339058 0.035929 -0.00473 -0.033829 -0.09702 -0.191947 0.007266 0.271974 -0.27795 -0.215997 -0.267471 0.098751 0.471939 0.200931 -0.071622 0.272692 -0.529374 -0.219448 -0.484446 -0.045481 0.262723 0.091214 0.230186 -0.027944 -0.053747 0.126832 0.178848 0.480622 -0.065922 0.431621 0.110076 -0.185849 0.112938 -0.121439 0.179594 -0.100525 0.160331 0.357248 0.431725 -0.038415
ministry -0.231531 0.190176 -0.332201 -0.080042 -0.214085 -0.394757 -0.089037 -0.420002 -0.483957 0.047769 0.01336 -0.026032 -0.580537 -0.433442 -0.505668 -0.040715 -0.615262 -0.134264 -1.41E-4 -0.105201 -0.237717 -0.297778 -0.118704 -0.338282 0.150628 -0.16928 -0.076842 0.320678 -0.459801 0.240261 0.143785 0.264427 0.184344 0.377778 -0.138018 -0.503642 0.21525 0.280327 -0.264518 -0.009028 -0.065426 -0.035948 0.348914 -0.131969 0.010308 0.007616 0.120203 0.015872 -0.308002 0.162616 0.061804 -0.266736 0.191338 7.06E-4 0.124043 0.109911 -0.200935 0.648689
holy 0.150612 -0.195979 -0.11266 -0.195128 -0.264552 -0.073261 -0.021908 -0.035188 -0.053772 0.183707 -0.023134 -0.14874 -0.380034 0.113437 -9.1E-4 0.276325 -0.124081 0.068872 0.007258 0.313393 -0.372537 -0.018829 -0.351004 -0.086 8.28E-4 -0.013185 -0.207864 0.332176 -0.003549 -0.128483 -0.416047 0.516497 0.218965 -0.387522 -0.039276 -0.057061 0.214482 -0.038348 0.223736 -0.030217 -0.02894 0.260842 -0.397165 -0.076601 0.001498 -5.55E-4 -0.462437 0.184001 -0.247276 0.095311 0.346595 -0.268488 0.171229 -0.058109 -0.094072 -0.015648 -0.047223 -0.015647
closet -0.130276 0.050288 0.051945 -0.216917 -0.250976 -0.068784 0.13153 0.119562 -0.249641 -0.011369 -0.096605 -0.135733 -0.032307 0.015569 -0.284144 -0.042464 0.066805 0.271499 0.126627 0.099936 -0.066882 0.056311 -0.033047 -0.157528 0.02338 -0.122529 -0.031262 -0.179624 0.049268 -0.035713 0.091978 0.140852 0.300177 -0.163505 -0.050908 0.006328 0.110044 -0.152762 -0.018716 0.018434 -0.082334 0.026768 -0.031207 -0.112495 -0.103785 0.220824 -0.139447 -0.094015 0.128936 0.023134 -0.056468 0.023512 -0.131183 -0.103696 -0.240254 -0.12139 0.07861 0.007719
space 0.098126 -0.029474 -0.245585 -0.126982 0.183036 -0.064602 -0.025246 0.191768 0.120096 0.015959 -0.214412 -0.242466 0.140369 0.023789 -0.0027 0.104299 0.211795 0.367947 0.206533 0.104761 0.045855 -0.002089 -0.150282 -0.511683 -0.088481 0.159297 -0.114945 0.040961 -0.085702 0.189206 0.352383 0.313361 0.150967 0.06622 -0.079631 0.017999 0.06664 0.103412 0.283183 0.216198 -0.252884 0.010417 -0.046126 -0.081362 -0.135655 0.379942 0.136027 0.408891 0.019252 0.069867 -0.179678 0.113321 -0.056043 -0.538771 0.179056 0.442284 0.313512 0.474011
brandy 0.050964 0.065433 0.011806 0.055275 -0.032875 0.015047 0.049291 -0.005244 -0.129093 0.011275 -0.062088 0.040778 -0.044155 0.050119 -0.007987 -0.047662 -0.005956 0.093114 0.03023 0.014259 -0.040835 -0.015492 -0.023393 0.075166 0.007575 0.052031 0.015156 -0.086531 0.003018 -0.003578 0.030658 0.043339 0.039623 -0.067329 -0.047481 0.001986 0.0115 0.001043 -0.033137 0.038904 0.045598 -0.094825 -0.024843 0.002234 -0.077573 0.050085 -0.003082 0.02709 -6.87E-4 -0.023066 -0.012588 -0.079349 -0.034782 -0.013275 0.015613 -0.04405 0.030897 -0.037998
buck 0.090186 -0.063371 0.114863 0.128326 -0.299126 -0.182014 -0.004596 7.1E-4 -0.013173 -0.167177 0.017943 -0.005047 -0.192078 -0.094443 -0.118538 -0.069079 -0.055013 0.046261 0.028916 0.094088 0.012492 -0.306367 0.109075 0.059706 0.07573 -0.17267 -0.048619 -0.075039 -0.184814 -0.276739 -0.174539 0.054531 -0.092182 -0.055269 0.095226 -0.011633 0.090021 -0.135959 -0.00748 0.006029 0.139812 -0.185624 0.028315 -0.199026 -0.169051 0.098788 -0.015796 0.076438 -0.071889 -0.027195 0.066044 0.182245 -0.270227 -0.140852 -0.023096 -0.113669 -0.094284 0.085558
dollar -0.423557 -0.213132 0.034704 0.066072 -0.165805 0.020004 0.418041 0.217431 -0.376959 0.188755 -0.284067 -0.115822 -0.54443 0.003818 -0.233364 0.098469 0.161288 -0.176772 0.144555 0.384224 -0.199563 -0.378538 -0.339361 0.270096 0.111066 -0.509606 0.183311 0.098572 -0.488838 -0.329108 -0.138155 0.493959 -0.481152 -0.197436 -0.036239 -0.379144 -0.407586 0.054564 -0.164348 -0.267142 0.693609 -0.080942 0.040621 0.086917 0.029934 -0.209691 0.145015 0.269259 -0.108716 -0.019409 -0.47863 0.024974 -0.143473 -0.293204 0.182427 -0.274324 -0.161872 -0.066071
situation -0.099534 0.22413 -0.516298 -0.06896 -0.00311 -0.514561 -0.205467 2.79E-4 -0.132068 0.177682 -0.095122 -0.302554 -0.189443 0.289505 -0.094976 0.062973 -0.047987 -0.262585 0.130767 0.270707 0.049833 0.084997 0.159934 0.098146 0.316902 0.065812 0.267735 0.149291 -0.240485 -0.160502 0.561694 0.35742 -0.181217 -0.0471 -0.168082 -0.1909 0.240636 -0.013988 -0.062789 -0.333942 0.019466 -0.067422 0.27775 0.145621 -0.001707 0.020736 -0.22874 0.12469 0.003864 -0.078714 0.2311 -0.185236 -0.190412 -0.360437 0.052391 -0.367956 -0.105273 0.136076
trading -0.703265 -0.074598 0.193792 -0.089901 -0.184334 0.291212 0.255804 -0.047162 -0.111227 0.10976 -0.091126 -0.269354 -0.047332 0.298052 -0.527554 0.094531 -0.218887 0.162441 0.126266 0.229639 0.05776 0.108726 0.097247 -0.039048 0.116812 -0.394907 0.236287 0.097039 -0.176402 -0.249156 0.181434 0.189379 -0.107032 -0.165391 -0.360676 -0.134958 -0.011498 -0.00103 0.050109 -0.046312 0.181796 0.189483 -0.175452 -0.324367 0.170245 -0.670108 0.370176 0.388397 0.134255 0.078703 -0.762743 0.056061 -0.072998 -0.093097 0.251724 -0.050856 -0.184508 0.021031
water -0.034148 -0.034588 -0.137461 0.082964 -0.123703 -0.031396 0.474953 -0.33381 0.025142 -0.17683 -0.029537 0.002372 -0.01835 0.057489 0.420504 -0.631705 -0.112214 0.488926 0.306577 0.137096 0.390021 0.042093 -0.171014 0.02887 0.016395 0.010581 -0.119 0.329951 -0.173546 -0.155012 0.098063 0.359912 0.353079 -0.167636 -0.109311 -0.549723 0.048032 0.110716 0.058796 -0.082902 0.109271 -0.151616 0.084993 -0.011161 -0.502297 0.35411 -0.02625 0.004475 -0.036167 0.046607 -0.048686 0.201976 -0.286458 -0.281422 -0.006964 -0.090443 -0.060981 0.037612
prejudice 0.160302 -0.007249 -0.143169 -0.131166 -0.410901 -0.019016 3.82E-4 -0.133514 0.064728 0.23187 0.055165 -0.243875 -0.027991 0.126701 -0.057281 0.157883 -0.114424 -0.060006 -0.178034 -0.105039 -0.044316 0.037956 -0.050788 0.042945 0.067649 -0.176295 -0.005286 0.106417 -0.205356 -0.093852 0.063939 0.096214 0.193714 -0.121482 0.033995 0.020038 -0.024597 0.058062 0.047265 -0.220397 0.024257 -0.111912 -0.095587 -0.048021 -0.165531 0.054086 -0.233446 -0.026759 0.021034 -0.075934 0.175841 -0.090529 7.9E-5 -0.063536 -0.026878 -0.080852 -0.020567 -0.096472
star -0.018156 0.085113 0.049836 -0.088699 -0.086196 -0.088143 0.190036 -0.006183 -0.205485 -0.404102 -0.03147 -0.076396 -0.10638 -0.027492 0.041116 0.249504 0.431516 0.370294 -0.062421 -0.251099 -0.243869 0.335447 -0.103 -0.221545 0.039607 -0.183777 0.257716 -0.217392 0.06017 0.057805 0.139467 0.130711 0.24178 -0.122801 0.219648 0.07329 -0.155756 0.076466 -0.171896 0.054081 0.086164 -0.001394 0.382842 0.543692 0.287689 0.145412 -0.030043 0.159709 -0.37301 0.194518 -0.028803 -0.109733 -0.047216 -0.246604 0.038748 -0.327401 0.299234 -0.018065
movie -0.26478 0.033637 0.184807 -0.066127 -0.176648 -0.066474 -0.055755 0.311313 -0.075953 -3.45E-4 0.197006 0.092716 -0.085646 0.110825 0.138044 0.411791 0.262476 0.293054 0.146977 -0.018207 -0.636033 0.251466 0.11768 -0.319229 0.24163 0.006087 0.387946 -0.3933 -0.106928 0.169842 0.204585 0.54635 0.423922 -0.008547 -0.109227 0.133017 0.08338 -0.261013 -0.260131 -0.210033 0.24641 0.158525 0.025516 0.247441 0.246292 0.336168 0.208135 -0.119505 -0.267344 -0.174501 -0.038217 -0.04113 -0.119298 -0.104809 -0.059557 -0.118695 0.437526 0.092314
marriage -0.019381 0.498205 -0.24242 -0.108497 -0.522859 -0.287893 -0.119463 0.295772 -0.18273 -0.134686 -0.043027 -0.014821 0.16439 0.298228 -0.068378 0.158267 0.19344 4.2E-4 -0.515812 -0.228368 -0.337779 0.109485 -0.035475 -0.004058 -0.301988 -0.329032 -0.131624 -0.087145 0.109474 -0.457236 0.326463 0.167647 0.265302 -0.464151 -0.046965 -0.040528 -0.411315 0.518602 0.169795 -0.04962 0.1436 0.098279 0.193413 0.101517 -0.118716 -0.087752 0.018731 -0.222509 -0.041639 -0.099938 0.071899 -0.199679 -0.064568 -0.25151 0.014769 -0.361952 0.314887 0.065675
flight -0.294567 -0.303934 -0.061018 0.176112 0.303399 -0.459588 0.041137 -0.068928 -0.0802 -0.024602 -0.14035 -0.235725 0.096255 -0.299199 -0.521357 0.231134 0.35047 -0.052194 0.361283 -0.137978 -0.028071 8.04E-4 -0.023466 -0.049174 0.249584 0.279252 -0.202428 -0.278529 0.051166 -0.114808 0.27364 0.224983 -0.018999 -0.088991 -0.327321 -0.306172 0.060414 0.247978 -0.256277 -0.083082 0.181212 0.241458 0.118008 0.074975 -0.407028 0.136257 0.113386 0.650849 0.147026 -0.216105 -0.028964 -0.216176 0.191113 -0.354622 0.190239 0.345658 -0.069668 -0.094036
plane -0.435048 -0.376881 -0.194875 0.114447 0.112085 -0.445773 -0.039024 -0.061375 -0.293144 -0.139272 -0.183334 -0.290959 -0.03939 -0.352579 -0.330468 0.153253 0.359118 0.054299 0.540759 2.84E-4 -0.031147 0.067047 -0.046053 -0.0208 0.265033 0.241468 -0.151078 -0.26524 -0.120979 -0.138534 0.1818 0.133221 0.090675 -0.019705 -0.402889 -0.472246 0.151553 -0.142294 -0.075569 0.152142 0.190498 0.016215 0.134599 0.061918 -0.327995 0.06654 -0.081564 0.589082 0.156832 -0.104521 0.252711 -0.059163 0.316395 -0.378438 0.147056 0.233235 -0.198766 0.067999
accommodation 0.352149 -0.189213 0.050334 -0.102404 -0.219869 -0.284865 0.284272 0.025813 -0.080766 0.195387 0.061273 0.088441 0.051414 -0.141836 -0.265785 -0.049361 0.009857 -0.013428 -0.164039 0.343456 0.260771 0.046853 -0.319295 -0.229967 0.16568 0.00501 -0.176157 -0.052456 -0.146143 0.106652 0.083397 0.36764 0.049966 0.173127 -0.278065 -0.069464 0.462939 0.364474 0.001421 0.058368 -0.141379 0.082992 -0.322349 0.158908 -0.152496 0.265935 -0.406072 0.121751 0.096726 0.227688 -0.317282 -0.055944 -0.059652 0.118927 0.10515 0.032427 0.175224 0.171665
interview -0.773517 0.426847 -0.082298 -0.039153 0.137393 -0.524865 -0.050679 -0.129765 -0.182239 -0.112261 0.005431 -0.232854 -0.440175 -0.067429 -0.489923 0.386959 0.145766 -0.092546 0.073287 -0.140154 -0.300874 0.207419 -0.022438 -0.083688 0.250507 0.031354 -0.101574 0.321124 0.251026 -0.316141 0.387421 0.106648 -0.070439 0.256763 0.121403 0.033455 0.483564 -0.019294 0.048986 0.093944 -0.01736 -0.112639 0.269817 0.373383 -0.078794 -0.272875 -0.007505 -0.252953 -0.152021 -0.36601 -0.18272 -0.250294 0.023507 -0.479965 -0.401628 0.201327 -0.124623 0.117411
archive 0.067247 -0.077499 -0.115909 -0.017757 -0.142922 -0.01811 0.028277 -0.035171 0.076569 0.308836 -0.014648 -0.137211 -0.089779 -0.085295 -0.182436 0.056689 0.023998 0.283359 -0.048663 -0.011309 -0.153666 0.352367 -0.197759 -0.176862 -0.119342 -0.057689 -0.179286 0.002452 -0.004261 -0.127539 -0.016976 0.236175 0.207086 0.173058 0.088317 0.005537 0.262059 0.036344 -0.248109 -0.044938 -0.108975 0.11881 -0.245938 0.020752 0.013334 0.073387 0.126362 -0.109683 0.230869 0.04863 0.018512 0.063304 0.059717 -0.225579 0.056432 0.210506 0.103656 0.088484
telephone -0.180767 -0.065908 -0.037687 -0.099523 0.158672 -0.193467 0.093649 -0.425624 -0.386597 0.222982 -0.182754 -0.140308 -0.435594 -0.289564 -0.382401 -0.087044 0.136311 0.22616 -0.159883 0.004819 0.097541 0.033973 0.086604 0.366615 0.064905 0.01032 -0.142836 0.053874 -0.130164 0.056053 0.259419 -0.073296 0.040569 0.324016 -0.160723 -0.275299 0.135215 0.013446 0.117748 0.149093 -0.061123 -0.129761 0.014698 0.073823 -0.063203 -0.094998 -0.098599 0.01813 0.270832 0.058471 0.097972 0.266438 -0.028292 -0.025728 -0.552006 0.052004 -0.106209 0.348771
warning -0.096002 -0.141227 0.03152 0.242293 -0.115172 -0.193791 -0.020171 -0.467487 -0.013998 0.245356 -0.03587 0.166149 0.109025 0.067271 -0.073111 -0.113498 -0.006316 -0.090812 -0.15469 -0.064028 0.259915 0.146146 -0.077634 0.304714 0.180414 0.414493 -0.1742 0.052728 -0.29963 -0.277017 -0.13801 0.238043 0.255547 0.014325 0.127894 -0.182265 0.337224 -0.421344 -0.135887 0.131268 0.17246 -0.251951 0.072583 0.136094 0.05046 -0.024565 0.022009 0.046144 0.260266 -0.059385 -0.155777 0.121192 0.184417 -0.352917 -0.095816 -0.153011 -0.341555 -0.047521
hike 0.087193 0.064447 0.084346 -1.03E-4 -0.084428 -0.016357 -0.123349 0.310472 -0.100668 0.108653 -0.191684 0.151555 0.230149 -0.119059 -0.18588 -0.314872 0.049873 0.085599 -0.062162 0.196077 0.071329 -0.266649 -0.118663 -0.075228 0.249631 0.048916 -0.154229 0.089935 0.033968 -0.268223 -0.40337 0.374959 -0.207349 0.002659 -0.238041 -0.243979 0.171004 8.91E-4 0.068031 -0.146718 0.119244 -0.008709 0.017149 0.025179 -0.068984 0.13765 -0.09581 0.146429 -0.330962 0.084448 0.035717 0.131972 -0.111423 -0.131917 0.024818 -0.213245 -0.155689 0.017301
recognition 0.149806 -0.048252 -0.229659 0.030055 0.107672 -0.132442 0.011027 0.066387 -0.011503 0.145045 0.076891 -0.080869 -0.094291 0.203931 -0.035137 0.205405 0.095477 0.097875 -0.214186 0.120352 -0.188787 0.033591 -0.249692 -0.298336 -0.125744 0.241347 -0.050495 0.256547 -0.143121 -0.106012 0.094613 0.148526 0.045612 -0.206326 0.193861 0.103029 -0.136589 0.11851 0.053204 0.02755 0.021878 -0.256196 0.02899 -0.120366 0.02131 -0.180319 -0.031547 -0.095371 0.170272 -0.061124 0.115575 0.090337 0.059509 -0.078358 0.013149 0.244524 0.075394 -0.078196
terror -0.178574 -0.44939 0.077605 -0.098819 -0.131088 -0.106409 0.098697 -0.21384 0.171152 0.263902 0.041521 -0.17642 -0.334009 0.044752 0.128649 0.314944 -0.376463 -0.317432 0.04349 -0.033653 -0.098121 -0.006452 -0.08537 0.489078 7.43E-4 -0.176819 0.383798 0.085479 -0.127915 -0.161475 -0.082892 0.133096 0.171233 -0.375345 0.168362 -0.098775 -0.031971 0.1086 0.173949 -0.098573 0.123277 0.020304 -0.158979 0.215182 0.137071 0.152952 -0.026747 0.251373 0.138094 0.018876 0.088367 0.254296 0.214904 -0.069645 -0.199342 0.061258 0.075009 -0.06665
type -0.106442 -0.096536 -0.247869 0.115765 0.116087 -0.027868 0.291483 0.200957 -0.024237 0.121157 0.203231 -0.231572 -0.149481 0.291142 -0.162923 -0.127879 -0.02246 0.207642 -0.01218 -0.127355 -0.070736 0.111246 0.006741 0.019058 0.125889 -0.10818 0.088589 -0.196588 -2.87E-4 -0.07689 0.045608 0.109041 0.217584 -0.174443 0.157908 -0.166461 0.019009 0.014796 -0.251691 -0.19905 0.232836 -0.255801 -0.127998 0.112851 -0.128215 0.131966 -0.046093 0.110787 0.303614 -0.372891 0.225824 -0.060025 -0.065391 0.017613 -0.053356 0.279689 0.166889 -0.014273
Jackson -0.209288 0.019086 0.332246 0.383961 -0.05539 -0.011934 -0.302065 -0.05153 0.099726 0.061017 0.254519 -0.292762 0.046629 -0.324118 -0.016414 0.414962 0.331602 0.513834 -0.237986 -0.05747 -0.122625 0.109063 0.214357 -0.112647 0.108414 -0.144847 -0.024976 -0.454852 0.119556 0.02848 0.361423 0.376864 0.353848 -0.240388 0.006373 -0.064273 -0.005676 0.120419 -0.239593 0.284386 0.122479 0.433589 0.42699 0.517307 0.219546 0.220966 0.131006 0.389566 0.084172 0.234377 0.086055 -0.173856 0.008958 -0.131572 -0.239854 -0.177786 -0.098909 -0.065613
love 0.302076 0.051749 -0.032073 -0.006365 -0.189 -0.278142 -0.073667 0.273313 -0.366566 -0.176984 0.261845 -0.158493 -0.202557 0.195 -0.350613 0.218559 0.220903 0.218778 -0.136878 -0.080462 -0.29267 0.005276 -0.146606 0.086873 0.131081 -0.196896 -0.107281 0.152564 0.234688 -0.034552 0.105903 0.189993 0.484409 -0.192031 -0.147705 0.373377 -0.161762 -0.031478 0.105736 -0.046049 0.230209 0.091852 -0.138027 -0.086095 -0.024336 -0.068232 -0.045805 -0.231332 -0.119222 0.021263 0.097569 -0.327223 -0.346521 -0.348884 -0.23663 -0.286839 -0.021982 -0.277592
memorabilia -0.080786 -0.027224 0.081225 -0.141537 -0.373703 0.054457 0.116586 0.080053 0.040036 0.123834 -0.066969 0.221137 -0.207198 -0.109419 -0.063748 0.139215 0.160792 0.24535 0.192605 -0.195197 -0.238363 0.146896 0.084202 -0.134435 0.032589 -0.035479 0.044025 -0.285129 0.205171 -0.13837 -0.063626 0.151561 0.186083 -0.327244 -0.143777 0.032994 -0.149099 -0.093543 -0.298992 0.091375 -0.101767 0.085925 -0.086063 0.143788 0.307452 0.128437 0.015484 0.119216 0.080955 0.266134 -0.289416 0.057397 -0.111514 0.018376 -0.18279 0.062681 -0.028074 -0.181681
family -0.062505 0.107025 -8.12E-4 0.130051 -0.1879 -0.492202 -0.179837 -0.182355 -0.172254 -0.07055 -0.181082 -0.022337 0.08239 -0.273375 -0.22178 0.157038 0.185286 0.098688 -0.162793 0.40898 0.030284 0.042318 -0.023297 0.114332 -0.039101 -0.241796 -0.340128 -0.027331 -0.004423 0.255336 0.152271 0.37467 0.098622 -0.180767 -0.288937 0.023864 -0.276305 0.298472 -0.032119 0.109646 0.286321 0.150998 -0.095438 0.118104 0.072265 0.178739 -0.392865 -0.18948 0.110024 0.087004 0.1428 -0.237111 -0.214774 0.025597 -0.086974 -0.02063 0.254043 0.00402
train -0.189384 -0.271631 -0.047089 -0.053016 0.209539 -0.477676 0.18956 0.145556 -0.119639 -0.202621 -0.336664 -0.098032 0.076971 -0.010256 -0.12578 0.235596 -0.029705 -0.065891 0.279061 -0.022846 0.114445 0.069235 -0.292878 0.002378 0.163642 0.117541 -0.220615 -0.137732 -0.148667 -0.294349 0.026464 -0.297547 0.245939 0.269761 -0.165867 -0.112999 0.435784 0.047264 -0.038537 0.045975 -0.222755 0.128647 -0.029858 -0.040313 -0.0191 0.269877 -0.344294 0.493614 0.078247 0.095921 -0.234109 -0.099113 0.210105 -0.387509 0.04893 -0.099657 0.027271 0.172433
